solver_type L2R_LR
nr_class 7
label 0 1 2 5 6 3 4
nr_feature 19870
bias -1
w
0 0 0 0 0 0 0 
0.2568252931731053 -0.01213282030028297 -0.002083881946790699 -0.04541662169781628 -0.02190811661499181 -0.03811222116015349 -0.008565903377061567 
0.460061640910534 -0.1551531876806427 -0.006292243337624721 -0.08240190222558914 -0.05776326169086496 -0.121290203770643 -0.01063671908763589 
0.6443269508997466 -0.06534306696403266 -0.1141014442864872 -0.009396783295431473 -0.1280137299670971 -0.003508243226044563 -0.07109364306650419 
0.7919551883385629 -0.06943634900219071 -0.1170123712434962 -0.1206063596856909 -0.1524539970877014 -0.07362581513616984 -0.08129494505910885 
0.52999738222463 -0.006279479058271717 -0.3885930051643018 -0.002130445994466797 -0.03286652348445843 -0.003231600628469523 -0.04376731721211351 
1.010338591005322 -0.1492598503246079 -0.002707969085286365 -0.2987121458076316 -0.03738993310347444 -0.2431012776287277 -0.01436962244472511 
-0.03505231741658957 0.07169138895231897 -0.002512787912648258 -0.05379718409226848 -0.0137004352214324 -0.04000959515896254 -0.003327531686768085 
-0.1750221381629082 -0.006319246452448871 0.2881337149632023 -0.002175027767391614 -0.03354133870205803 -0.00328289209998231 -0.04438333395602635 
-0.8858555235003067 -1.545953495923016 -0.06160599256152092 1.378096582884034 1.291601263526781 -1.048899813888703 -0.07861480786148978 
-0.8998656923051146 -0.6692376252184961 -1.135309840276438 -0.240700678213542 2.396951465301183 -0.1936770309667985 -0.6734478025067522 
2.114243800116151 -0.1598703168906387 -1.742699706532477 -0.06540816438089944 -0.485333779523063 -0.09376585691775706 -0.5562368837257695 
-0.5069174674626773 -0.4800865368253311 -0.06726183901247858 1.193753326078296 -0.2119583612918429 -0.6634476779769465 -0.1506892081437997 
0.02875503435077442 -0.01561348349939553 -0.01614024375544958 -0.02496623621231281 -0.0320293881355498 -0.02323266418244064 -0.01688501973698875 
0.03169691808664265 -0.001372822802253963 -0.002696449923555728 -0.01578649070816392 -0.01207292800449931 -0.009427918185130189 -0.01042299446558591 
0.3409340431463643 -0.3072396946078365 -0.5018435549474822 -0.2076477178498319 -0.3227827750210587 -0.2160711919904896 -0.3037310118692831 
0.02069847786702499 -0.01617117684251227 -0.007551350020270879 -0.0180233514794992 -0.01562466391374282 -0.02439432445353992 -0.01171895722539743 
0.00752225468049872 -0.001543499198993893 -0.001133384429704802 -0.001289545121416803 -0.002868012310023108 -0.002113557380966117 -0.004789530237492829 
1.069210134813521 -1.260507396689061 -1.077463504069144 -1.045479796056481 -1.150727828101425 -1.024944307146247 -1.172650176338691 
0.006771996028493528 -0.0004264422578913959 -0.001027582761134381 -0.001314993411497939 -0.003735288571369495 -0.003191324389048836 -0.005291977361357201 
1.562150750683539 -1.670560252546325 -2.179520294089562 -1.413069511797068 -1.79502910026904 -1.351734993173925 -1.857539898089318 
-0.2357388721766314 -1.068617885101341 -1.274655757394674 -0.8475905515307918 -0.1720518097664409 -1.047638701698681 -0.9337883660084533 
0.4208632551450051 -1.082746228136826 -0.7394053450084732 -0.9778856255377364 -0.7224848647662262 -1.04981995787349 -0.9208658594933394 
0.05856782346429591 -0.009031059153850616 -0.00131855825254591 -0.02715411630742239 -0.009945399912806074 -0.004436003852314649 -0.002712319572059308 
0.3704612863859894 -0.7122496876014276 -1.232574769627592 -0.5611209714242266 -0.6425568773657513 -0.3824076725589503 -0.8209593176914833 
0.009133478876525651 -0.001808348775678641 -0.001643441184935429 -0.003116976615178106 -0.005521464874827408 -0.0005481528954194092 -0.00567310877123739 
0.2896358296110953 -0.299362065434623 -0.3748386528312744 -0.2666272085529838 -0.3034070325270689 -0.2901743308228905 -0.2892791021742592 
0.2163889181575415 -0.2896271472310065 -0.1418362924955431 -0.1863301862752053 -0.2614602824025686 -0.161758208691303 -0.171752389362222 
0.02378216265460208 -0.00544827578646771 -0.03970349424354312 -0.005716001031727985 -0.03205878839608717 -0.008587947221076125 -0.03592988650929285 
0.04761113947711956 -0.05462288497777395 -0.07321292746565233 -0.05444555326463281 -0.04620038744476813 -0.0576583352857212 -0.05979683890049324 
0.4885835823196014 -0.4365167636206482 -0.1840974561991233 -0.3828948339293815 -0.4893545783014649 -0.5545953258105387 -0.3094713036122966 
0.02196837719863934 -0.005961446878082358 -0.002365974833207834 -0.008139586958896761 -0.005349389802511584 -0.005190881395378022 -0.005729506882541958 
0.2241468452508378 -0.1448707358658052 -0.1301494305135283 -0.08740661570461684 -0.3505367955326477 -0.07091422636603706 -0.1632142444874465 
0.04767645799005145 -0.000821555476040813 -0.0008574453883252999 -0.002814825246439419 -0.001600749532828773 -0.01915197342000133 -0.001768524846747628 
-0.06871493406136613 -0.6060996380570438 -2.377524466342439 -0.7035325918745622 -0.8485744608828968 -0.9036139414440105 0.4666993154305606 
0.9434671788201223 -1.203046472712056 -0.9113930145118487 -0.9888099950239141 -0.9127471942933841 -1.074420577599522 -0.9347482873339916 
0.001919555155700491 -0.0004840092820985412 -0.0003332122338260616 -0.001257915366937211 -0.002858249313788259 -0.001621418542076153 -0.002663815662484568 
0.7693436617484452 -0.5038037592775324 -0.4383048348916013 -0.3405725362319549 -1.023446532794902 -0.2594794391982096 -0.5636024537684041 
0.01013902123784613 -0.0003124669797920616 -0.0003447164060593797 -0.0005987880000450163 -0.0008019717485514247 -0.009346736319841762 -0.0007036149126191156 
0.05698021651423246 -0.07456705192855981 -0.05268702548777681 -0.06159727902869029 -0.08254875277898537 -0.06134458696985533 -0.070010373262669 
0.1686188716760573 -0.1109849506998242 -0.1025463081910414 -0.08564150212273497 -0.2056266331760351 -0.08231557517813189 -0.1130903389711736 
0.6483254860545591 -0.5184516881507315 -0.38616965920348 -0.7178971498311827 -0.6306235438575473 -0.5443084402791744 -0.4846535412177661 
0.006157602575837234 -0.0001690721576204491 -0.0009361546212740281 -0.002591613942916521 -0.0005925813882216124 -0.002877300429127858 -0.001425819861964601 
1.770837512931391 -1.87579929330365 -1.13794962357386 -1.159079052163803 -1.174792202309589 -1.297014296940819 -1.350804856530747 
-0.06534786797046369 0.1565381631620577 -0.004060790401749911 -0.08376697873479716 -0.01482428172284482 -0.02704177937963836 -0.008681894431392129 
-0.04373253463056155 -0.1138264264763979 0.2855002519573054 -0.004631637016466478 -0.09029763420321765 -0.0007684793720194682 -0.02561025790156726 
0.7341708872221162 -0.7477064110452842 -0.7631215499994196 -0.3663550888161457 -0.6300181600252235 -0.3517443055019058 -0.6681761631106569 
0.07810361161679562 -0.07173495018189743 -0.08039802498109554 -0.04793727225884581 -0.1377479615560202 -0.05594124038767297 -0.09023205280830261 
0.0008848481451893588 -9.648157259330774e-05 -0.0007422938360437925 -0.00310848849466607 -0.001064039825965497 -0.001415933754235464 -0.0005622618508999436 
0.6952414998177394 -0.4799887468573479 -0.415171773612978 -0.3282143734158993 -0.7733147181462896 -0.2523666752299395 -0.4990941607132689 
0.003357913561223509 -0.005937275918573452 -0.001718402329943175 -0.001891218538227042 -0.00210724803032149 -0.002325477412750284 -0.00281756823256763 
0.003595707208704029 -0.0001184755490367018 -7.037854040926543e-05 -0.0002306720169893806 -0.0002165848429076623 -0.0115246057830901 -0.0003900659880032365 
0.5404037773896622 -0.1493211598346973 -0.08610171126197727 -0.2381749380826175 -0.0642521892409819 -0.232256875947042 -0.07962400385060496 
0.0008486569378204156 -0.001175286815051434 -0.0007720545047993773 -0.001391725170156738 -0.001845256268443527 -0.00215545081661215 -0.002266808466165064 
0.001489416929033159 -0.001423057010430463 -0.0003246085216237703 -0.001085884903728813 -0.0004253530582230068 -0.00162866279578966 -0.001087155809534817 
0.1921551251968885 -0.167568912951344 -0.1026474513154754 -0.1249240385910428 -0.303188564586873 -0.09454925255108539 -0.1357807367207677 
0.008455934016083978 -0.008149900659878737 -0.002438505385205271 -0.01454789931111281 -0.008161722583745376 -0.01022675596468128 -0.006064189411672058 
-2.745910015275063 -0.4520179357388462 -0.01090017269672284 -0.3594456272264154 1.919369682061266 -0.2765362208031714 0.6546491050212089 
0.003899586607823357 -0.0004502956471929385 -3.516759464461692e-05 -0.0006727140307395687 -0.01598996984892844 -0.002185149716576556 -0.001775669468149583 
0.007885135031821732 -0.00227735412720419 -0.000421451071832278 -0.05759640882663146 -0.005268972548722759 -0.01038924214112926 -0.00129872423688638 
-0.7115997454551277 -0.6664388494839062 -0.3136901300665357 0.2858789942909621 0.4951797904783844 1.142842470198452 -0.1528718721342836 
-0.2381217956101614 -0.04890764356239323 -0.3835875353749954 -0.01572373083398699 -0.3871081281681825 -0.01424150234069744 1.071005362754617 
-0.2077673193010618 -0.4757651930777058 -0.007016200754747741 -0.144483219158217 -0.1101940407652513 0.8787326895840936 -0.01668686503392942 
-0.1665134236017455 -0.02751823010620869 -0.489650373201837 -0.00572548142707704 -0.1570272868076185 -0.01723893511059926 0.897718470109736 
0.2212341106057547 -0.2702357153793802 -0.1068604294245757 -0.2099843829577292 -0.1545653499741532 -0.2269808664802665 -0.121668972965319 
0.325213972027436 -0.34640667023436 -0.1892193460516926 -0.3155387565382675 -0.2955135124815392 -0.4162880797631894 -0.2717392196464719 
0.077774187757071 -0.04257706171770564 -0.09046831159618632 -0.06427897868510113 -0.1644469863761414 -0.08476211339286129 -0.1451301419670915 
0.03004890304411708 -0.007923334101480869 -0.0009136480799181463 -0.01886567130379622 -0.009705646607317649 -0.02285201569379367 -0.002301514287272885 
1.072584446482994 -0.08476288891677798 -0.01819063516492268 -0.1401441308567067 -0.5828248045785555 -0.4298771058833666 -0.1015850825847683 
0.3627636871425464 -0.4493623861766363 -0.4694559711977451 -0.2809179901393171 -0.369510909310157 -0.3222454120775829 -0.3629438922002438 
0.1406661753383116 -0.2143317538067355 -0.1511808828422379 -0.167699896556676 -0.1190915265718832 -0.1322426672545532 -0.1128150353546758 
0.0475738279119871 -0.03907913036099801 -0.02195021589760363 -0.02831365267531902 -0.06222900148112596 -0.03550611102857172 -0.04328956557758822 
0.01686103951708428 -0.008472344438931965 -0.003429382536467402 -0.02005340481270108 -0.01335049699463486 -0.009580992273488208 -0.003755399542061391 
0.002278877992789692 -0.001105692038168557 -0.004833183479023837 -0.00124388051289039 -0.001911826926791978 -0.003775517533987246 -0.002955849058203469 
0.1546405741799453 -0.01698682752206166 -0.007633028158422212 -0.1092361107954872 -0.007632236781924598 -0.06697084159912944 -0.009638383792885905 
0.005607557558407413 -0.0005281773490693795 -0.00113643877043031 -0.005177214883446352 -0.001178109712656382 -0.001492065931755203 -0.001068995264766924 
0.2625893096586676 -0.2572620080535953 -0.2807323464002544 -0.2131217554335657 -0.2604576007990774 -0.2187897446176138 -0.284448018630979 
0.005807902719929282 -0.002059958196581835 -0.001588760424611772 -0.001982013917843523 -0.002377507679572371 -0.004392999181254717 -0.002503443140325859 
0.03497577403809632 -0.02398722921058828 -0.03802121064717114 -0.01713865638706584 -0.05457061821506749 -0.01853650567344292 -0.0345762473821349 
0.02680672627171142 -0.0003183952321318831 -0.0007473088985240848 -0.009173433641945405 -0.001015103458241428 -0.006662670899216006 -0.00079572520865406 
0.03505115356040814 -0.05772731069963669 -0.03357912284298605 -0.03414122983820309 -0.04246732940055931 -0.03767661544016912 -0.05869558308558034 
1.024056932595422 -0.1267510137376957 -0.4113918738559923 -0.1366776442284909 -0.10113929124918 -0.6084816607340665 -0.08616759927947658 
0.01958384192431371 -0.005169966210580573 -0.02941991616422097 -0.005772918866023626 -0.02202956720257511 -0.01373878156842041 -0.02899952663522795 
0.04630366397651405 -0.0197164291592018 -0.03208375481933098 -0.02591727964755172 -0.02643261258340172 -0.08870193336872854 -0.03211875258605164 
0.6175551295874108 -0.06134203067913063 -0.01076552291573955 -0.1758091820272358 -0.06593866302026298 -0.1701383309544117 -0.03216091427149145 
0.1753859432061917 -0.002403119137878659 -0.1045262557594022 -0.007064380533552392 -0.05362217140162649 -0.009592309659339654 -0.1740436718833639 
0.008501366962912059 -0.004046092349123324 -0.001418907037403505 -0.003263107873992976 -0.001664394253364863 -0.00465757307992222 -0.003550815808080685 
0.00491056291259296 -0.001620222617904161 -0.0005736643352180125 -0.001054213724265324 -0.002275405048218597 -0.00412634390358242 -0.002808195358109306 
0.003570657493210076 -0.001074666065806703 -0.0001417083757406972 -0.004095064384844901 -0.0005547575693292019 -0.001480741061242734 -0.0002279363863633836 
0.01908775299099867 -0.003860697310828964 -0.001115324115167829 -0.007079267879934671 -0.0134066306966256 -0.01351914727637403 -0.003891916709403438 
0.002340274162036971 -0.001057586477542652 -0.001047756091706813 -0.006850855360644245 -0.003071216149723903 -0.002660987736311409 -0.00198100191481017 
0.0003799639141089661 -0.001034809569512915 -0.001504191329567632 -0.0007349760593615824 -0.001194772437836627 -0.0009888947963144028 -0.001960536695371498 
0.007666183941053137 -0.005344793281504957 -0.003927084565948651 -0.0199128447184447 -0.005895513501868356 -0.02816445519467539 -0.003210966823126223 
0.09510229593794219 -0.03859203488785577 -0.08038014219208169 -0.03823620863065211 -0.137397111967907 -0.07747099363353845 -0.1024071083885078 
0.05459880320329022 -0.002306385302697131 -0.001750013727956007 -0.01693433872588986 -0.03327565796590282 -0.009835621336570005 -0.008235594643566012 
0.04634312447802955 -0.0008511929411149265 -0.0008837241100519412 -0.003321496966782001 -0.03276565504304903 -0.006182097496943676 -0.006975851099735315 
0.005378304226748437 -0.0001016079541255174 -0.0001026222247950194 -0.008839888118627268 -0.0005458763199388463 -0.00477416048318015 -0.0003788462096669554 
0.0674967096475995 -0.006756728010110397 -0.005475818952437921 -0.008535941999833537 -0.01506709867679219 -0.02573989961382401 -0.01163124240393334 
-1.037421457248923 -0.2330250985373941 -0.2291229495106258 -0.1527080520775041 0.7256727066034838 -0.1300502759693227 -0.2789675468330403 
0.009969248224877858 -0.0004353356404781945 -0.001327605411401791 -0.006382645142469145 -0.0118047086924302 -0.002370698799785548 -0.002732072319184407 
0.07943422529976817 -0.004924465363730385 -0.006464698768504206 -0.03950390529083161 -0.01952520774256662 -0.01517987521750042 -0.01325348814585008 
0.006378252362033127 -0.0002966113399906095 -0.002003488415177447 -0.008963746089040502 -0.007718334899905644 -0.0004266718258807396 -0.002049304457115809 
0.5503019143839497 -0.07287486937673388 -0.01104926428032173 -0.4358650851540923 -0.04010235973497506 -0.172558415542603 -0.02991522676845296 
0.001776011743254264 -0.0001467511192784878 -0.0003889913881765533 -0.002826364178909919 -0.0008155458950150305 -0.0005659773855637958 -0.001212551735797719 
0.04794354188649304 -0.001466689019976843 -0.03837693355581092 -0.004204884673296572 -0.01223688282549786 -0.000837547037486384 -0.0431049227318339 
0.01251955686271685 -0.009285626055080626 -0.0005167212612677418 -0.002903988282581735 -0.004889073448323994 -0.0006737924881601976 -0.001314777716048317 
-0.1548642804596008 0.4611114537304147 -0.006311038312254351 -0.08275123696701757 -0.05810168899987238 -0.121498915018096 -0.01068481662931972 
-0.2787985989522914 0.3859548352487314 0.3188205254442458 -0.04212027706031016 -0.1026030276598024 -0.1587496622996269 -0.1139388475685375 
0.006509162652980429 -0.006422672314511975 -0.01565653193741911 -0.002256169407411891 -0.01381559266096827 -0.001648508823091863 -0.01601142169264938 
0.01062415113133658 -0.001634590213940402 -0.001200405543054102 -0.01851367194821764 -0.001119794214146087 -0.00343667411153016 -0.0008654451030929568 
0.2013163015713986 -0.1420288914231738 -0.1352061331770996 -0.1996142642720453 -0.2012610362396331 -0.144079445637911 -0.1523933619517801 
0.02904906703491824 -0.008692841201912568 -0.005578181862437468 -0.01134068858941503 -0.0128342979975144 -0.004530437592610075 -0.008232106456758127 
0.08385184697291664 -0.01155524090171162 -0.01329987216920334 -0.04686656176282127 -0.02772425596776914 -0.01608387448303545 -0.01446890953825208 
0.05440722429148347 -0.003120498638059351 -0.004578040517508625 -0.02406065949962076 -0.01743119795442171 -0.005128953771676301 -0.002653133130728006 
0.0123150013145041 -0.01061751666807039 -0.004599089360968494 -0.01105946712424683 -0.003024565143469841 -0.01025603297854544 -0.01417893128160323 
0.1945602535835647 -0.2657949182819141 -0.2118066906880734 -0.245208637380847 -0.1953129126901884 -0.2707794937505206 -0.1959106754039115 
0.05252182932712943 -0.005320088956975396 -0.008218997465133326 -0.04805821141493669 -0.02553577650460333 -0.03688874377363938 -0.0168226617490234 
0.001800067271852726 -0.0009833372752744752 -0.001308372975217196 -0.002621031260416676 -0.00344252205473435 -0.0008048813842780429 -0.0009661591620314621 
0.02352173565988417 -0.002126900394372954 -0.003330348444872905 -0.01259501170914186 -0.007670578196655592 -0.006207918540528943 -0.009742141861726648 
0.009194847532053844 -0.0003141083957669144 -0.00246024770367702 -0.002310883881106415 -0.00612408875628271 -0.00179073303128383 -0.009462276621111645 
0.006567229419035167 -0.009101380583494729 -0.004048017865772049 -0.004035642576003705 -0.002275243894959223 -0.009258245768395033 -0.002930044311185143 
0.2603743907237361 -0.189466977700938 -0.1472307686333729 -0.1127241762260338 -0.3867247253920159 -0.09654205439496515 -0.1784352580587768 
0.004848481119837867 -0.01067418903484779 -0.006340543884098595 -0.005228964402281428 -0.01114230761145691 -0.003940475919145718 -0.00756027757139492 
0.0663151855042361 -0.04356908265178376 -0.00886167069643044 -0.06869894879295056 -0.02047494763168676 -0.06366690588845793 -0.01978119824701748 
-1.126574452424199 -0.2244109886125772 -0.3117842809097952 -0.1722749022756358 0.7345720098773906 -0.159725555339404 -0.3182602299849588 
0.07012546670957961 -0.121078503136915 -0.01400235259646842 -0.1215197258099596 -0.06188968767811363 -0.09316286685574525 -0.03312201125127976 
0.004928979673025197 -0.004539216274330675 -0.005133050801339251 -0.01045449503312794 -0.005519646829860736 -0.006837446863666047 -0.009982974217159414 
0.004427148020082575 -0.006180442572837455 -0.004127030469452715 -0.006086948381626299 -0.005730086815671689 -0.005049258825501769 -0.004195998371173091 
0.006583906041475925 -0.001124800973345399 -0.003211508892792161 -0.008235796264189315 -0.003535842651627913 -0.0044835213677422 -0.001458035071173554 
-0.1080388977487916 -0.06819725241081057 -0.01713765627267669 -0.1392505365004209 -0.05884005631552563 0.2844186132471683 -0.06021191984682141 
-0.6055129482639767 -0.005005986499712983 -0.05475296771420023 -0.01845360826306016 0.7884997847129742 -0.00838869615120889 -0.04120281690125736 
0.006817859473906491 -0.008233341839233951 -0.006551710724592335 -0.01131268848126656 -0.004946994909228463 -0.008265204891303377 -0.006023644470958405 
0.00594556005654615 -0.0006747449285628928 -0.00106027378085409 -0.00840971415662335 -0.001059065285441969 -0.003666588189535223 -0.001682494786974088 
-0.1923245138945709 0.3038524681889391 -0.007916123680085456 -0.04816651779773375 -0.02898957618784223 -0.02846070637708671 -0.006066208430815719 
-0.3286280538342602 0.428531789636925 0.5368384588829304 -0.08066492228874728 -0.0731398288245098 -0.2021204868259414 -0.05648098241018862 
0.506671988435394 -0.4926735623285095 -0.637546149318907 -0.316589617985783 -0.6344139824059433 -0.2315243012015934 -0.5096922477161931 
0.002357822041603576 -0.00108259799107566 -0.0002501791669400711 -0.002695509053248243 -0.0008235812008295526 -0.004098413563392557 -0.0004524185985067361 
0.08132216443849928 -0.008674173807374612 -0.01790613784627363 -0.04198291862418198 -0.05259234900975088 -0.03677493604656169 -0.03837757732001758 
0.00412491436926501 -0.0003025445273215495 -0.0004332912347577479 -0.001224202965631275 -0.002607202358970476 -0.001161100364778259 -0.002917138153333273 
0.01050156806804974 -0.01048495736122862 -0.001324225860107866 -0.01581508580777446 -0.001139918137186901 -0.006068956995993692 -0.001862682017846637 
0.117716670448459 -0.02019183418293985 -0.02746441390298767 -0.07659905450542262 -0.0520608602270791 -0.03489960201458161 -0.05858269791237389 
0.00174475040663352 -0.00311081551257426 -0.001160101425066688 -0.00166123230171098 -0.002767358591078756 -0.0006587290192265086 -0.002550375666149433 
0.2531142010853535 -0.006094261237212839 -0.005809910438364978 -0.0508799081159663 -0.02379097483318616 -0.02327686246034494 -0.0184350370577653 
0.0179180841240207 -0.01261089763190866 -0.0107937545681336 -0.007861647010913929 -0.0376908309462322 -0.00779230044856893 -0.01631535362211563 
0.1170927993186727 -0.01487303220244125 -0.009677147456237838 -0.02274911689682753 -0.04957779187799408 -0.01762736818599548 -0.03015362649530505 
0.0007396799630155241 -0.00140767558824647 -0.0004077378699661349 -0.0009768879990823065 -0.0009839676875758191 -0.0005716581026830541 -0.0005154830201746554 
0.008929419710299121 -0.005363800073039375 -0.003903699346985368 -0.003869053543862576 -0.01479618592082042 -0.004596432543057136 -0.005493568641454112 
0.03148214564739898 -0.001532237285625958 -2.394392193885808e-05 -0.003592489577169372 -0.00051609275190776 -0.01007104464187164 -0.0007996430950338874 
0.04790566607631876 -0.03103509606815182 -0.008038461158492391 -0.0071325725947951 -0.00544310240881224 -0.02419896786106766 -0.004859208274600558 
0.2145979736043415 -0.009456028240463318 -0.007442303720362592 -0.02416106074637826 -0.06974353963207142 -0.01748888415511921 -0.01513798995406508 
0.4585568718070079 -0.100546202046929 -0.01355167353828536 -0.03055549068087482 -0.01104711263444169 -0.2302225211758241 -0.008846232368757062 
0.1954447322436262 -0.03061651064130436 -0.02704317358920396 -0.1828660212031702 -0.08572031206104136 -0.1268328468842677 -0.06256879504929806 
0.005161148373861659 -0.0003349310547448254 -0.0004178291031405137 -0.001466436155786491 -0.001957930920586301 -0.001365742289719815 -0.002662335086886419 
0.03237930554036686 -0.008613203115046365 -0.0001117167202887052 -0.00833390352928458 -0.001767348434244678 -0.0007240815748435924 -0.0006640843538127365 
-0.1822589754577676 0.2338472056918258 -0.007198834735429383 -0.04814314106794721 -0.02640124707118677 -0.02849499877766387 -0.005712966849570856 
-0.2034141216707634 -0.02737752044555536 0.6523073007012113 -0.01281538534056721 -0.1832658687012651 -0.01035218156646386 -0.1731514361536641 
0.002358933741104269 -0.001773185686976177 -0.0001421764534140647 -0.002597199003838996 -0.0003870555310838011 -0.003823086822107593 -0.0004115622393464847 
0.1141994903010255 -0.007623277146697796 -0.02192448336199069 -0.05272578631651362 -0.04361205249015309 -0.02084420896395195 -0.06375919415641806 
0.005262301722258109 -0.001217744109280807 -0.0005855940240333814 -0.002261426675365364 -0.02363599496745215 -0.005590777653476692 -0.004454606235320075 
0.00206824317063195 -0.001297481810154287 -0.001003924587966806 -0.003083287785203252 -0.001029351338822466 -0.004352837522833865 -0.001617765226255494 
0.00136042618167787 -0.001904943152391319 -0.0003331479411412183 -0.002420691636660194 -0.001408200164599131 -0.0008730859395999869 -0.001682766824911771 
0.03723948656945294 -0.001902874386162814 -0.001015375666155704 -0.005776513099604868 -0.02274756376665156 -0.008220294830065681 -0.008372615134894703 
0.04126965902898545 -0.04330796920317296 -0.03463733146528081 -0.04708187181507738 -0.0377661602935911 -0.0424565476773513 -0.03473400988803958 
0.005213615345666313 -9.805329875674225e-05 -0.0001004349020896007 -0.008671349079972081 -0.0005227047724622941 -0.004681192815626718 -0.0003701592945629078 
0.1179724747883874 -0.01575999972923417 -0.01205310893421955 -0.05627297640687056 -0.04994046286261119 -0.07703041523220862 -0.02609760973151604 
0.1727842923662235 -0.01071465687860164 -0.001620734373741871 -0.04755403117238565 -0.006398693231597485 -0.05682730453902856 -0.003698904998147178 
0.116120937671806 -0.06685555488800017 -0.0179446828915233 -0.1270633084855926 -0.06783618671060934 -0.08151289543489655 -0.03116160896147094 
0.1573655500768874 -0.1142364184097253 -0.05051259867724706 -0.1227895740792061 -0.2476545828058365 -0.1628818260698724 -0.1005130268233038 
0.01359628662652754 -0.006255632185384574 -0.008670411384607841 -0.0058473234208711 -0.009927836802651576 -0.01464456539240397 -0.01300248064491514 
0.21004979268981 -0.0252304428221064 -0.0104102256329804 -0.0817531865420123 -0.01029039892470763 -0.08136015940935405 -0.00500743102256023 
0.02672710841367349 -0.000385687872576758 -0.007802860739966782 -0.002240659424199316 -0.01170392040199295 -0.00267779774231449 -0.004864022609306217 
0.09941999881513629 -7.713478654113094e-05 -0.0004748084816016709 -0.02357508897049756 -0.001045809169596511 -0.01341174640723426 -0.001047143403624017 
0.006278558047650993 -0.01923746858475408 -0.0006825628122090801 -0.004567667460256278 -0.000864320748322748 -0.001312394342546632 -0.001703002549368631 
0.1836132649176349 -0.3090401242154794 -0.2366429698871043 -0.1941104040310981 -0.2459231796926768 -0.2340861731409521 -0.2507652806113712 
0.3684702355414688 -0.01787015754659292 -0.06409940268077016 -0.07180503030780724 -0.155033921108011 -0.1461426208037851 -0.08643647087183212 
0.02298636925041307 -0.00233409809160947 -0.005398144161568617 -0.01167117461842445 -0.01874041323475002 -0.00384543816992664 -0.02991015313279361 
0.01332829673477455 -0.002826548282687757 -0.001116016588658649 -0.004006901233775207 -0.003980846002280821 -0.002505985092418995 -0.005325860824918433 
0.1875370409539811 -0.07465345355523094 -0.05053860357844743 -0.05266077418674306 -0.06461610813256261 -0.02353847769048414 -0.08918791946860782 
0.02644912907832072 -0.00224582857753635 -0.000760515019170553 -0.009846248096205499 -0.003625529368692277 -0.009468058167923532 -0.00291954997125857 
0.3888122576266802 -0.2739995743258361 -0.2579067278374623 -0.2019413476664669 -0.3203327700771093 -0.3544540418537861 -0.2560917385987476 
0.3353944393586322 -0.678711296581608 -0.2917246111810952 -0.21056797341022 -0.2610559849836849 -0.1815781249478051 -0.2143811900913375 
0.0420248621957092 -0.00410234567261585 -0.0014358484442121 -0.00391477086670414 -0.006130337474768749 -0.006941793352616099 -0.009356059020518878 
0.006951152615437028 -0.0008700793080942996 -0.004408281578760003 -0.001326239767362898 -0.004538371863971683 -0.003322863922425733 -0.00560822025739562 
-0.3260924956364492 -0.003448123991433886 -0.0002287692898176989 -0.03696333835736829 -0.005661840248885275 0.686190261081593 -0.003153862684665797 
0.2677230746105321 -0.08591146449588336 -0.07090842617807165 -0.09772317295090814 -0.1560509541492116 -0.09208724111778921 -0.1476229699168269 
0.229421005154273 -0.01351007070026821 -0.05978798040003127 -0.08774930479728775 -0.1112659106894908 -0.05896441552888054 -0.1011390373135978 
0.003372129178484862 -0.004900695727189808 -0.003269648279390766 -0.003007391929761561 -0.002670879658785726 -0.00322889446885578 -0.002300105347650621 
0.01389916423256741 -0.007021539309990647 -0.0006125009515027735 -0.0102583068459955 -0.002644709784989775 -0.004167570603762539 -0.00305349653911646 
0.01976399136582977 -0.007026063924975744 -0.000768928745482981 -0.003912274481492103 -0.005795144138057714 -0.001937402550306814 -0.003523799901408414 
-0.1915401637038333 0.3017845872108066 -0.007922635276475789 -0.04847533924263124 -0.02902897033316905 -0.02857169485007918 -0.00607686606091751 
-0.2425355375695503 0.3503953711960865 0.3555947971632687 -0.07754622254988271 -0.07697138919178585 -0.1940325815987987 -0.09873894111550123 
0.002955096122306676 -0.0007858882670800577 -0.001638680844794921 -0.003378136346777091 -0.003214354267692147 -0.0004644014427793123 -0.004892302292038917 
0.01006490805205097 -0.0003158050814394059 -0.0007443292457351278 -0.002152145326880107 -0.002779345790401577 -0.001075491854857485 -0.003765087229991753 
0.3355092607418083 -0.1065768964472625 -0.00378682015440882 -0.02687596733629977 -0.01671673994008598 -0.2289923585163437 -0.008605023406220552 
0.7763940591123354 -0.838090449168888 -0.5739336437671819 -0.5750622971567655 -0.5345712459533482 -0.5875468252919669 -0.4531050779746133 
0.02496809518745683 -0.02020795367876621 -0.0131389332162909 -0.02587495439045445 -0.03106163389806484 -0.02555274827594315 -0.02586776108271415 
0.003744093966797453 -0.0001625170387243129 -0.0002960370162831364 -0.002545935650130115 -0.0007513629953112308 -0.001666816581720313 -0.001150219924587246 
0.001453076898210419 -0.0008493120952351335 -0.001424033326960106 -0.001280383820103726 -0.001015356111389416 -0.0043285694506053 -0.002473984936153443 
0.03682052929165003 -0.04338268026548679 -0.008002328055261836 -0.05931956942088041 -0.03117370783897374 -0.05536199144495513 -0.01951023707685631 
0.02937343611559447 -0.006034393354932518 -0.003133630666289341 -0.003891795585306754 -0.04774598540112444 -0.006461053412886891 -0.02013826365492991 
0.0382138731193551 -7.774756927869405e-05 -0.03496214388753532 -8.677029401231349e-05 -0.01273508746038375 -6.772580760973344e-05 -0.03444368082205695 
0.01805129275000564 -0.01287523625167137 -0.003764266050772725 -0.009076061682209986 -0.02878479906729741 -0.008112130267668294 -0.02359272292039896 
0.01076807434646277 -7.843635482817438e-05 -0.0003915687075446401 -0.004833157229301655 -0.0004275606603465707 -0.003889005893999733 -0.000723000927618232 
0.004958531831753403 -0.003458017834206533 -0.0002779040473894854 -0.002899863031894855 -0.001338821900193696 -0.008001387305046808 -0.0026102603179665 
-1.359908593716918 -0.000199088881406512 -0.0002490683383639412 1.434630030307225 -0.002693140084871369 -0.03195725485964463 -0.001101548157618892 
0.008572437192267163 -0.0002548998848143476 -0.001127468172852521 -0.004011840367159519 -0.006085898950994409 -0.0009077286239166536 -0.0009712066196380909 
0.02518650579593673 -0.02392590695525517 -0.05317858494912583 -0.01166740522474822 -0.02646892668194318 -0.02510157308295228 -0.03612389891393346 
0.1169797278435038 -0.09439790289458072 -0.08080006859600099 -0.1000825373813976 -0.1116923735352164 -0.06981533562772725 -0.07478328358238473 
0.7166209029597433 -0.01210898097672007 -0.04103547955438337 -0.0238049807409249 -0.2380160876332537 -0.1361271879064772 -0.3715656488133523 
-0.427651282223925 -0.02005857192188772 -0.003901405169353004 -0.07734655945799354 -0.004970445352140975 0.626331792714138 -0.003520395062383495 
0.006821005865704696 -0.0001904667795238017 -0.01317577326809085 -0.0005681409768616127 -0.003822313186109607 -7.160352961373316e-05 -0.007855135511232804 
0.005777778049854473 -0.01675393512487311 -0.001211397668827168 -0.003842045696764989 -0.006237034438242942 -0.0006936928550611781 -0.002058549594056467 
1.271392415095675 -0.8262723477003946 -0.02112831326791295 -0.2455366482962086 -0.04496105102337018 -0.360006973268362 -0.01893127587902125 
-0.08423842929406007 0.5502733735385458 -0.09920237187778078 -0.008927202490199094 -0.1097122962205428 -0.003425560325681604 -0.06426451742859833 
0.003638623717351709 -0.0007359718643535492 -0.0006668838230393617 -0.00404251575017043 -0.01370475847187831 -0.00536334998495354 -0.003043951489210473 
0.001699305540225822 -0.002578593404381245 -0.00047638425233379 -0.003041700687623962 -0.001787963555676241 -0.0008337292419459361 -0.002359012429882423 
0.002142589552135076 -0.001923971604320131 -0.002562275180402769 -0.005517820789071097 -0.002411355953177758 -0.002839578620154542 -0.003671488253709985 
0.006854915005421151 -0.003758517444030947 -0.004177126498491423 -0.007345877254480898 -0.007955250425743842 -0.0111698279227864 -0.005021279233014965 
0.02339090954434352 -0.008798095731726864 -0.0381209549637346 -0.008868708390570005 -0.04936691477740462 -0.009941885461995153 -0.02993145979322395 
0.01301115868384104 -0.004390931486762109 -0.002687537808744003 -0.01590277917616887 -0.02345964085203723 -0.01865929001718043 -0.0156228969490043 
0.2459984673395664 -0.0247588714552147 -0.005097010745091619 -0.1198961604811393 -0.01475673949120459 -0.06544219757627874 -0.008326107061554849 
0.05489962823003985 -0.005413460684966959 -0.005774713516031906 -0.01094544599569167 -0.02207786886399853 -0.007526167948542051 -0.06474310500497173 
0.001977671307071888 -0.0007486811308718583 -0.0006272940347235564 -0.0005995453317430217 -0.001016184352753774 -0.0001900555695771153 -0.001689931494367746 
-0.245636896877719 -0.043093945134665 -0.001518540177734707 0.5234000418878361 -0.01172682150730136 -0.1336849934918364 -0.001272800552786185 
0.3426735256804974 -0.08765459918282685 -0.2163549221115388 -0.01355034595117322 0.7929001698597948 -0.01311771368918373 -0.2730172181524784 
-0.1224610026589905 -0.8019796849235306 -0.02394574997028251 1.283189783097953 -0.2391921144459586 -0.4303724699363335 -0.03543149725530267 
0.04513189141019637 -0.007231196236593536 -0.01199413422636034 -0.03354621722866697 -0.05235276412075222 -0.0171799507584725 -0.005481294266515768 
-0.241783783762336 -0.143463745403455 -0.01841067942658174 -0.0355015493001902 -0.0316134295825129 0.6336419486625279 -0.01217129670300742 
0.04335717523181458 -0.003754515078715837 -0.006135843699667556 -0.03348198527731518 -0.01420156025441139 -0.005056580421164497 -0.00591018545739446 
0.003791050124794361 -0.0003766603265148364 -0.0002990481506604593 -0.00319433323266751 -0.01005899556463485 -0.001030277036549347 -0.0003899377433176794 
0.04078420990876824 -0.02521604759098658 -0.01346309446871699 -0.02685072681783341 -0.02613090186288475 -0.01225019651567109 -0.01913801628163845 
0.001320004059660276 -0.0005472573341455576 -0.0005944964232034546 -0.003790171818521776 -0.003212585317666572 -0.001166971419740666 -0.002353283781054187 
0.02513771129765055 -8.688430652408791e-05 -0.00026643630032061 -0.02004979607837776 -0.0006033742262670429 -0.004004592499023015 -0.0003635759423030624 
0.009946926956712921 -0.02126128438863863 -0.001032464520578962 -0.009033308821954373 -0.005181596522880064 -0.003243220744138468 -0.002761231847073771 
0.004068005036113295 -0.003643005236437519 -0.001432740608352197 -0.003517355629624989 -0.002493193980282938 -0.002317245250895969 -0.002239112979530843 
0.009941479041145018 -0.004349709527589875 -0.008663791445873455 -0.009844396480554792 -0.01520986501188232 -0.004285613000261958 -0.006703078955214849 
0.03315910420136192 -0.05399772247819825 -0.03794388911812662 -0.02669875211039367 -0.05773882629198971 -0.02849212319924421 -0.07437263991115169 
-0.5774083158448263 -0.1362798522845428 -0.08950610584925382 -0.1757682103553749 0.4900492738315628 -0.1947906350797214 -0.1389390123285734 
0.008318259013329979 -0.001012050145367996 -0.002208998280403305 -0.00384136798095469 -0.006891671026808965 -0.00212578406435541 -0.004909536575261855 
0.009696437819350805 -0.008660010195519657 -0.00358610710662487 -0.003751448417498903 -0.01226046600595745 -0.007907028536136982 -0.009858192745703022 
0.008661932480223714 -0.0004504203610477398 -0.001136719545728126 -0.002414134120978883 -0.001510192327954138 -0.0007776829824352294 -0.002154563326078663 
0.4344304167089786 -0.492892409602006 -0.4850854120301188 -0.4289368894771387 -0.507741756985453 -0.3964939714669127 -0.5353887883379457 
0.053915733614523 -0.01265688569326304 -0.009112651733047266 -0.03088816621268127 -0.02639830466436089 -0.04484638346895957 -0.02418858758883676 
-0.1634653498422681 0.1889098282197047 -0.00373163319221916 -0.06135693811294165 -0.01026311563136485 -0.03212531077906008 -0.003988185294629223 
-0.09749208825090837 -0.01722690716878007 0.3533077432035591 -0.003256347416980606 -0.08153212319325578 -0.008094736094846674 -0.1453220119379777 
0.1125354690281062 -0.006273880136871406 -0.01341926824175297 -0.03274741808089217 -0.06459914293638024 -0.01114433379432461 -0.0490760039062212 
0.05720268803762542 -0.0006364780585354716 -0.008170027189600219 -0.041854794068063 -0.002279491282845002 -0.0579024927735198 -0.003250268094799121 
0.3852445548361969 -0.02612081029610872 -0.009326436104529819 -0.07733553750025857 -0.07244191405685434 -0.09939557274002422 -0.02136062338259228 
0.00478729134889876 -0.001974988647480093 -0.001165309922242776 -0.003815116422944739 -0.01234448472449933 -0.00873099387855915 -0.0054318126631878 
0.09158465769680346 -0.02650848579284902 -0.02054312475219772 -0.02763042775356717 -0.03716411608276726 -0.02980123078223544 -0.04887010910334519 
0.008934888665815247 -0.001529869893187755 -0.00022336090865539 -0.002090475492817253 -0.004919112572397204 -0.004331252183254045 -0.002308941499073378 
0.003425543907707258 -0.001122920090978468 -0.0006967508041900587 -0.000792268260411113 -0.001656943540505371 -0.0002344764665077726 -0.001441467777644556 
0.0316638396892422 -0.01408433827333081 -0.02140161168143408 -0.01312441583649954 -0.04032697822951134 -0.008745281614717583 -0.03200071064307062 
0.007416453726933502 -0.0008984779037302178 -0.0002025815322952792 -0.001648847907577245 -0.001220555709401155 -0.001479946957348543 -0.0006459795879458541 
0.007727568840781238 -0.002037460264418808 -0.002550297240651248 -0.0009755641943070167 -0.002370570634065304 -0.001551222661244018 -0.003127331130958117 
0.01730698807064003 -0.006426016193429035 -0.02338445614833717 -0.008724353692963444 -0.01320178462315223 -0.02409297942495875 -0.01512087901204706 
0.2548026841270148 -0.1601705439041423 -0.02154470777740544 -0.2057516971131552 -0.1248698296634823 -0.2847922394410081 -0.08209895437662962 
0.1378738778106813 -0.03997925199170046 -0.04120380283410938 -0.05432721818120399 -0.05276029782916009 -0.02099966291191104 -0.06443539571383933 
0.01561064108469349 -0.01701029846349474 -0.01399080736031132 -0.01478267065620978 -0.02032659889516744 -0.0129282837388184 -0.02217961035073823 
0.04139388427675382 -0.03622799680129173 -0.01675186374010626 -0.01982095845283314 -0.05886547462590513 -0.03098183809837474 -0.03187440625092498 
-2.767174719974237 -0.7201448990576758 -0.06336001493407094 -1.11025293010262 -0.4102500708304913 3.990637497578114 -0.1041267641734236 
-1.490129218859207 -0.4571084242141404 -1.154469477369912 -0.2067971993851215 0.174366155154258 -0.2744774587336745 2.03205990532215 
0.02395357545334477 -0.007472251033659476 -0.0057741852819169 -0.01786213778639984 -0.01343768243023322 -0.009531549399184365 -0.01000294472700541 
0.1405781663368773 -0.0139764635444496 -0.005609163425945695 -0.0680643920431504 -0.00600849588225207 -0.03628526128665772 -0.008056470734379401 
0.1512545818306441 -0.01170325739834291 -0.04958474163492654 -0.06730235149761382 -0.06177701273535395 -0.03299927467993357 -0.06481485435914516 
0.6385714905337571 -0.2142464569553874 -0.2135959835620959 -0.4717575279843492 -0.3461677608404716 -0.4041921372353036 -0.2174431180842587 
0.006369051654996746 -0.00740132363197121 -0.004456680861960617 -0.006790815688507672 -0.005987631138482724 -0.01360653097918538 -0.008951889521754462 
-0.3448109304224311 -0.00206886053572057 -0.0009688898815017713 0.4815162437525759 -0.009147114513291216 -0.07320640195751009 -0.005463382880748898 
0.7157600723164704 -0.4670178681930808 -0.3277457220377466 -0.1416931943383254 0.4501305760011083 -0.1962633225305032 -0.03560567423760322 
0.008837789958108759 -0.004266164889051427 -0.001414045500202844 -0.01096635938934663 -0.007392597128290354 -0.004633922221828009 -0.003775886033705881 
0.005866372243554669 -0.001296655327452431 -0.002618499886369552 -0.001657785536775067 -0.002259383623476021 -0.002468409119343259 -0.00774352550292492 
0.0232569311821147 -0.004960985465238483 -0.000733119832233856 -0.007431317695415766 -0.01220564051391733 -0.003370480324678367 -0.00291434539688614 
0.5704786574832706 -0.05581827693172235 -0.001132342991433569 -0.04591105735425214 -0.005264664416882214 -0.3066020055109397 -0.001499562931796196 
-1.018561443063168 -0.2576473394474114 -0.3577542510019938 1.109534978610282 0.145381979155204 0.596088072420455 -0.2295563307145926 
0.01593836104612998 -3.803045892687975e-05 -0.01230387893938186 -0.001779129646370814 -0.01075619602685608 -8.797084024205332e-05 -0.005191062710599359 
-0.2259829341478699 -0.1641233511083945 -0.006844543544468255 -0.03459547408581452 -0.001278088874697668 0.501875026409714 -0.005133045441276548 
-0.2113585705407398 -0.1241320781398478 -0.01768374186781455 -0.1534798396826547 -0.1394795735813533 0.3345044508054588 -0.1963188268439168 
0.9266452741689515 -0.3089880407598611 -0.7299801516051297 -0.2454817217184862 -0.9194009478097819 -0.1110264201151172 -0.8221552849097625 
-1.8676836855825 -1.288309582019262 -0.9298481364684116 2.807426727401601 -0.4133528412850346 -0.8956514422103315 -0.5531793279074456 
0.7006973107394725 -0.2033038325288193 -1.219001701590576 -0.2086756753569614 -0.7003958315921021 -0.128488124368516 -0.9148920835564308 
0.01815181635039579 -0.0300217815419267 -0.0139485458385584 -0.01360014108326997 -0.01133794988901817 -0.008639755889729954 -0.0150698886948824 
0.04024374076500038 -0.03408790544177862 -0.03130234991368797 -0.03986533622401283 -0.03142903181684639 -0.02306514806869299 -0.0417379785642872 
0.05449923230903051 -0.05324073732657499 -0.04866591763712567 -0.1030304941982141 -0.06034355205818812 -0.06763268338881423 -0.0719802928198431 
0.0020001214843729 -0.001195822312381978 -9.704687766007876e-05 -0.001902056485823699 -0.002181715200670818 -0.003473607508257214 -0.0008868528275135174 
0.01265045414819571 -0.0006464242186694951 -7.11833773978746e-05 -0.002499611415155283 -0.0008101244649953622 -0.01235913781416184 -0.0003185934009529474 
0.01319901785405745 -7.906437876014002e-05 -0.009757083712968621 -0.0006052303367541532 -0.02090726410587046 -5.344372719752802e-05 -0.02420924498883225 
0.1039212368170427 -0.00283088008040169 -0.0183725816521527 -0.05043582838369408 -0.03674168945586306 -0.01542366146250791 -0.06870243083479226 
0.05620533278587706 -0.02701756786767982 -0.009224940838935861 -0.003680900779679839 -0.01099613322637208 -0.0008572808385759782 -0.004150932548147193 
0.05921346306318903 -0.01781277541812572 -0.0493400185445964 -0.03518858123467904 -0.04833653402800533 -0.01710240311304466 -0.04256865947125067 
0.0108981389991102 -0.004220857884650055 -0.005270903139485662 -0.007176796562646678 -0.01891584882355852 -0.01122671916752575 -0.01003324641507467 
0.1060918171934674 -0.1531165361310706 -0.1411802787939054 -0.1412327201476919 -0.1255349648754881 -0.1301757758896435 -0.1172219242209534 
0.004326963620833346 -0.00906529018783774 -0.001959958205525692 -0.001427205567094836 -0.002757639226440684 -0.002216536210412459 -0.001559380988406226 
0.002008133238721796 -0.002036281505005274 -0.002732189974894453 -0.003267665384483908 -0.004570394210503082 -0.003021085943952737 -0.002905998459696718 
0.01465565665088777 -0.02183922117999043 -0.01071510450926887 -0.008872755608151194 -0.0270823836957297 -0.009010279246348079 -0.01422299419369398 
0.2252783082641101 -0.03202965486406351 -0.004263911362338619 -0.08133540381297139 -0.0737721261460941 -0.06748322151503507 -0.01863358752804598 
0.05709212528744235 -0.1045649100422351 -0.07898998622023791 -0.04915496836014623 -0.07926258635730482 -0.05790612714926444 -0.04470180706719331 
0.006581773691782131 -0.004532199608837055 -0.0016885657132499 -0.003466061871705001 -0.008784970482271654 -0.004602819765737061 -0.00666859032099429 
-0.8894755050596073 -0.4383019840489622 -0.05909609140795449 -0.2122085268692622 -0.1522705930944032 1.668208695060309 -0.06080437766952326 
0.05627986727800872 -0.0545071248618586 -0.006883728593903802 -0.02032050380643972 -0.01968129824200628 -0.007707015756017886 -0.01181563448178807 
0.0003821711187893466 -0.0007197612544897095 -0.000550270455850543 -0.002334534199269528 -0.0002417868811148458 -0.0007513185577884857 -0.0003981732515700449 
0.003259984544197379 -0.0001425005561481759 -0.0001835785176583382 -0.003398199621534206 -0.0005675056859268308 -0.001210488561982345 -0.0007558506835954216 
0.008671069593977669 -0.0008618725559014659 -0.001745539604580079 -0.0005253242827797663 -0.002172545672353156 -0.0006118413822729063 -0.002533899680176682 
0.06039936618390716 -0.002811013495266991 -0.0002259309777733172 -0.02017597057446102 -0.0008367226370533094 -0.0147649132530339 -0.0009747027169922466 
-0.2514678733634451 -0.01522565633680387 -0.0006193902228148329 -0.00502502425445401 -0.009467656047083398 0.3467124866102335 -0.003383113661187932 
-0.3559918767623236 -0.0408377306216268 -0.005450597602432024 -0.02461853248333827 -0.01029385451908985 0.4793432716352675 -0.007271178950759559 
0.1701373948862296 -0.002113890527973817 -0.08188497950279948 -0.01483010603859649 -0.06337844035510522 -0.004826697512088666 -0.08902675125008284 
0.03326629469201924 -0.02956231783324808 -0.005759605125412163 -0.03213738968619727 -0.04561083395332018 -0.03709863522711872 -0.01757246726589343 
0.1922686648997152 -0.3007546755050365 -0.1170010639790109 -0.1480369868631557 -0.1357700847667499 -0.141693913745747 -0.1220172650170693 
1.390575981663729 -0.634325100748201 -0.1035667720538328 -0.2838914465183648 -0.1659470476112078 -0.5270093831939846 -0.09326101718230492 
0.004247009241204211 -0.01328247860885686 -0.007902006663433056 -0.01078272665064084 -0.005877813470866187 -0.007494110793733422 -0.006020995265844186 
0.02974183122102988 -0.002295221514956845 -0.003807554826778754 -0.007691494645750065 -0.01752951988119572 -0.004179509386736142 -0.01123118184690196 
0.02349674277583019 -0.03530150054140086 -0.02195750199826891 -0.02450043690223064 -0.02407499655639279 -0.02437186051112016 -0.02260895178789175 
0.03040722905339035 -0.002030012919686381 -0.002052079055556863 -0.004583973330289712 -0.004990996173369677 -0.01153409124149181 -0.006942143167333444 
0.007289522265944022 -0.0005657753577982595 -0.001628605466530898 -0.003723017016396716 -0.001825137938839818 -0.02544263833648378 -0.003811944530554082 
0.01155568360982294 -4.887495869703848e-05 -0.0003584222313582119 -0.003711389346122696 -0.0005277579916448112 -0.004545274937437244 -0.0005827026321709833 
-0.2666496379363011 -0.01983747558269869 -0.003313420489951821 0.7424290121852017 -0.05052887156396292 -0.08191149013197947 -0.007671211637126993 
0.0152507341192683 -0.0002814267715356573 -0.0004479770008955365 -0.006904636460462014 -0.0005388927430833984 -0.001384118016326338 -0.0002217872013371217 
0.009769464939116535 -0.007264728958886119 -0.005512984543275935 -0.006995743905931588 -0.01104963342423184 -0.008353327904328165 -0.008585661261261176 
-0.4510610201550949 -0.09207570102763729 -0.007602780041634919 -0.06097706743911312 -0.02696696830484903 0.6949084359245506 -0.01326266781804136 
0.007878991161157495 -0.0001222735905207372 -0.002517677476679365 -6.253145987742114e-05 -0.01611998127615546 -3.970640455561199e-05 -0.0216756470839341 
-0.3651311498380823 -0.1157229505463841 -0.009756354291804539 -0.04471985337846064 -0.03435632845588022 0.6656663003274478 -0.01394964106642622 
0.04779216978436558 -0.003643824544238808 -0.006275587667226299 -0.02559535590667894 -0.01563746106751325 -0.01784935703735202 -0.01026481794470024 
0.01175870328461019 -0.01384574602160965 -0.00384426073290168 -0.007345734752410576 -0.01453382280303375 -0.01099467207895192 -0.006114982442582106 
0.003207606598626447 -0.003201525203449491 -0.0006317838477229779 -0.002932450346204343 -0.002143917962747039 -0.004076575744615999 -0.001013798674386708 
0.01406538582507619 -0.003375238690293722 -0.001459660768932591 -0.007878551617786854 -0.01319420463193296 -0.004725821920441927 -0.004992887001784489 
0.02521092773244047 -0.002104642905494109 -0.004064222340122365 -0.01803760152009512 -0.00549077428332141 -0.005626781914305704 -0.008733584659277384 
0.004904418594389933 -0.00691884123301522 -0.001356125908170143 -0.003618105102599741 -0.001629068827001721 -0.0054322765436409 -0.002476404037202328 
-0.2330777454013735 -0.09953544560660775 -0.00156426915842075 -0.02092754748752933 -0.07486825686153398 0.6373727955153807 -0.01577365547117788 
0.009978575380177115 -0.02859348678411416 -0.00281300910932017 -0.00525031147154487 -0.004384562519101991 -0.006601545528716875 -0.004138982295929265 
0.01154133209964252 -0.01059247937965756 -0.006454168426333263 -0.01541932491608552 -0.00729774552222371 -0.02356753507853913 -0.01005775613925559 
0.0104053052612426 -0.004668497795485111 -0.004184604027829782 -0.01267768341400312 -0.01676101125054256 -0.009005850005870453 -0.006068667134198236 
0.0009914578019666383 -0.0002896894208970957 -0.0005754137109756262 -0.006508601535040111 -0.002868899743275967 -0.001381978122631467 -0.000720588171496408 
0.0199591587213911 -0.002804275142229604 -0.002331763402921272 -0.02603514591351997 -0.008662515778815744 -0.02029669789639836 -0.00737113564582734 
0.02094470566606534 -0.0006069454042950452 -0.00293879347724788 -0.01552923259442801 -0.01271554452723082 -0.002603757044668567 -0.002158682310992046 
0.006546762545007409 -0.002263788221192027 -0.007340861854916448 -0.002069391498097308 -0.01564299120024508 -0.002145840741868264 -0.01288690048914607 
0.02662052174991075 -0.01384747540257823 -0.009655559760238944 -0.01832995073278812 -0.01606243328720195 -0.02073091823909211 -0.01404304296854598 
0.005243281778178847 -0.001464312599434247 -0.0002132953739133456 -0.002457221194943255 -0.002861245425159008 -0.002522531227771635 -0.001074083677555662 
0.003752536375266376 -0.001157042940821227 -5.104393344277155e-05 -0.0006658942491494436 -0.005671337954558538 -0.002455360169441521 -0.00220411319265447 
0.01147588192979558 -0.0002246766163181628 -0.0002997203907217602 -0.0037415815030479 -0.0008719125231601344 -0.01050506478512929 -0.001251916352089041 
0.00410715834447956 -0.002579050694656373 -0.001920968760733982 -0.003320313719808383 -0.00431023855288446 -0.002051337310978868 -0.002341601316586172 
0.5854033624188368 -0.3511711591171958 -0.001394965073092331 -0.08583297404409072 -0.002659111650997077 -0.1593475217830006 -0.002158275472352098 
0.3495532953837345 -0.0100116095970309 -0.2867556342819767 -0.003903487865109156 -0.1269603803939288 -0.004020388438833402 -0.07185360831533286 
-1.279895468144619 3.317944018334715 -0.5288034982385357 -0.9776199646805295 -0.6679221626935042 -1.318821578699972 -0.6037467471957692 
0.05596676949594716 -0.001568474953620485 -0.011301670398211 -0.01237861889423531 -0.03570096859212409 -0.00862016602401245 -0.01286315485476349 
0.5514545847814002 -0.3685461792208602 -0.01618616131691901 -0.126022130415852 -0.03742827158842854 -0.1161400033144933 -0.01631306965949675 
0.6241835150247261 -0.01242260938030249 -0.0654403555491883 -0.002053689621735808 -0.1594267188241424 -0.004829260664840075 -0.1220888902733245 
0.602490569493637 -0.08118400858028897 -0.001409352315723803 -0.02256949252289388 -0.007854866748879523 -0.3334596443345907 -0.001812719660677627 
0.5333934120870282 -0.006319246452448871 -0.3892478372827954 -0.002175027767391614 -0.03354133870205803 -0.00328289209998231 -0.04438333395602635 
-0.2421642680636482 0.5343435438214064 0.1589918236457651 -0.0936674949099488 -0.07553355124436983 -0.1799233377956441 -0.01960782480675744 
-0.05832715819075599 -0.05981788881067641 0.453273497205242 -0.009406187877686554 -0.1118960008541111 -0.003473794386775477 -0.06479110922405933 
-0.1750221381629082 -0.006319246452448871 0.2881337149632023 -0.002175027767391614 -0.03354133870205803 -0.00328289209998231 -0.04438333395602635 
2.863459389628381 -1.791836333907241 -0.3586697812945784 -0.6981152144095492 -0.6397038861965024 -0.8552859393288686 -0.265445106884082 
0.004120157571275736 -0.006708632387539647 -0.006853198157304742 -0.006833533446562603 -0.00693962825876252 -0.006429224111454003 -0.007158826660796641 
0.1047572764264156 -0.01868442019151722 -0.01159227200832205 -0.09056478467914139 -0.04780038914987157 -0.06388971308312688 -0.02810356533736916 
0.01999650363310213 -0.001945630085739277 -0.0009807906859150358 -0.007371081126727794 -0.01172373710969992 -0.0051807044508683 -0.008056839977030578 
0.01594544949356593 -0.01680693953253502 -0.01107742313976044 -0.0460016510505524 -0.03140752812711044 -0.03963615838787887 -0.024931046763208 
0.05675575771197745 -0.0108393510703079 -0.01808377432112328 -0.02078910213529326 -0.02545725355397818 -0.01843824757069933 -0.02943121410193985 
0.06134498923108987 -0.01063499972762023 -0.008798872883406941 -0.04181954400730041 -0.01694609070286167 -0.09967175450486321 -0.02260537988838092 
0.002843881178265661 -0.0005600403495968323 -0.0003250737067078679 -0.00112922610146738 -0.002802062286453627 -0.003267362309800069 -0.002811624042503473 
0.003020612977484667 -0.002727793077793503 -0.001567919877199953 -0.003246051011186317 -0.0009288230899152774 -0.003392515502267676 -0.001479057563256239 
0.03622797093349343 -0.02418621901691333 -0.04521200933276297 -0.05945739050667732 -0.03361866333400089 -0.02912612121547442 -0.02688801584745115 
0.1360099838219704 -0.01254830767468458 -0.09420929353920465 -0.05533279356360139 -0.06281902723740886 -0.02318777562332189 -0.1034034547305477 
0.2501846236577871 -0.1444959717459657 -0.2455621835801482 -0.3894967102144257 -0.2699113700763061 -0.3080087356619176 -0.1321801017137572 
0.01326798119384062 -0.005184216459475265 -0.007848712163592593 -0.01460539820528873 -0.007146115199717466 -0.01379729219118766 -0.01404135520523858 
0.003980956516272133 -0.002174640570932233 -0.003695841983637596 -0.003974228129043792 -0.006005833943579134 -0.005585023263485939 -0.005692978415569835 
0.005992323499028785 -0.001472127087780166 -0.0009946648393048701 -0.004790688779722948 -0.005499562716136982 -0.0043775273361923 -0.004270405392552526 
0.02164266724953852 -0.001265586840765428 -0.001402548360743959 -0.003836502171410911 -0.006281468785123301 -0.004097119118217307 -0.008102417068519543 
0.2657749309790695 -0.1500236338495278 -0.168301983107757 -0.1041924926865638 -0.3216576023083935 -0.1972253867114966 -0.2081111918777143 
-0.3704302599369981 0.5072141044518649 0.2369605706589459 0.1760464867280913 0.6960575397240321 -0.6541015095163761 0.1307753389631614 
0.0393282052023604 -7.095144210069238e-05 -0.02054748929697104 -8.389388415545389e-05 -0.01336287309978862 -6.652878011568148e-05 -0.06306471604927689 
0.0009628658844917506 -9.859235617395393e-05 -0.003986448492942965 -0.0001945340966016671 -0.004011148825810398 -6.236507297783802e-05 -0.003703582025990422 
0.01414682400989745 -0.004301818760610384 -0.005836233469169767 -0.005545463214414498 -0.004451963382625371 -0.007319234481437412 -0.00902078529995173 
0.001352778340949121 -0.0004230987632761655 -0.0003189084447490588 -0.001698580535963426 -0.002202025132999374 -0.001742904124066163 -0.001210587245173474 
0.003547981676708331 -0.0009130436409683475 -0.002975426402691332 -0.003518874917395408 -0.002790614904903924 -0.000973505206173884 -0.0007176010772761008 
0.02197448404811205 -0.01172114351922639 -0.006687415970001535 -0.01271393430987341 -0.04066677196684234 -0.03355414850383592 -0.009128109741903949 
0.004149339871137479 -0.003482282467897516 -0.00259199162836642 -0.004467441482369531 -0.003728695095803056 -0.003179331916403618 -0.008192720098018011 
0.004294481216144437 -0.005659372638166577 -0.005274873730247084 -0.004242305620891556 -0.009130585446585121 -0.003281231068197068 -0.004489386025941395 
0.02783894174991954 -0.001866884623092701 -0.003788190637476136 -0.005270613122080553 -0.01209204646810539 -0.007047488238052857 -0.01231435210152934 
0.3985990901711767 -0.1234375778931467 -0.1966667120315573 -0.07678920255155984 -0.1727092901390342 -0.02722809795588746 -0.2674667065699794 
0.004688426788701195 -0.0001000391958046144 -0.0001020480015639215 -0.008053543327274093 -0.0005303090307083034 -0.004553959297406969 -0.0003664746274353968 
0.1055113789889902 -0.01327900167802487 -0.01658733908286187 -0.02421029737550846 -0.04696104448557851 -0.01487182692968923 -0.03646347252078776 
0.09352915344006754 -0.02790247545588527 -0.05381630196430258 -0.09936153749230764 -0.06544263142750642 -0.1086111321755475 -0.05596382799732939 
-0.5589395515066194 -0.01165834192113401 -0.004538845192898424 -0.05942381155926676 -0.01190351738893965 0.940967209868836 -0.00995681104666509 
0.4010440253634704 -0.2622520204196306 -0.1860896198379684 0.9035739421227372 -0.3860493078124638 -0.6297227902189639 -0.1846707887500204 
0.08782685771775771 -0.00985446912053884 -0.03364638568344952 -0.01328143927760969 -0.05272919413203574 -0.01308577067958612 -0.07815864123594747 
0.01073358380495775 -0.0004224192803126742 -0.001208648591342637 -0.01903875039678057 -0.001942817853553961 -0.002170679730359061 -0.0013131212492717 
-0.9749215442905419 -0.9878693755834297 -1.023825470297655 0.03405478363160534 0.2130694597445953 1.536751228855615 1.557601978812293 
0.2643187873807853 -0.1373894150241469 -0.2375209445005836 -0.1290756488976585 -0.3940750326750866 -0.1285934859182991 -0.2353467781074381 
0.0009108963166287703 -0.0007346510438215183 -0.001788597374145745 -0.005453700952185214 -0.0006626554747756253 -0.002646786406480333 -0.0009224793880001481 
0.1664901366905255 -0.01710898234802875 -0.01101898759294777 -0.1123308448216592 -0.05524099992832063 -0.03080827627781664 -0.03235998712476947 
0.000653526072087588 -0.0003913446463225853 -0.0004027178877865618 -0.0007562645339596406 -0.000638043986480963 -0.0001526542342072993 -0.0003554643046351271 
0.006157602575837234 -0.0001690721576204491 -0.0009361546212740281 -0.002591613942916521 -0.0005925813882216124 -0.002877300429127858 -0.001425819861964601 
0.01469953469563566 -0.0004580053387842854 -0.0007673772349785872 -0.01555016971167491 -0.005576112646003197 -0.002947279383093432 -0.004541779140631552 
0.01601223456972234 -0.005436172314858199 -0.004197299541673753 -0.01238179961523632 -0.0482893595255267 -0.02765938182713074 -0.01050431751440243 
0.02444404535605466 -0.003327148933496583 -0.003908853176615247 -0.00679677223698975 -0.009565938765977862 -0.004465135628037064 -0.01732538869602117 
0.07644544724447468 -0.006799353139169738 -0.01167609483514072 -0.006794295306891285 -0.04364223459183666 -0.01443466028999571 -0.01965941472164527 
0.6066430575722082 -0.1547265664141639 -0.03301327259491162 -0.2784270940540642 -0.03772000221776313 -0.3386768700266807 -0.04226918525941201 
0.07545658564291245 -0.1086879337811366 -0.06723202692598662 -0.08418896105676585 -0.09446375596875393 -0.05027710564128676 -0.08083930876976375 
0.006031703477732995 -0.0004428115634467095 -0.00143797085343574 -0.008235587048409928 -0.0030066339011467 -0.001161129166847518 -0.001625955662490043 
0.0002206724466065853 -0.0007040941742603671 -0.0007078080270683037 -0.0007491484947456673 -0.001600617408309065 -0.0006770495772115189 -0.002168145861525373 
0.002732648627048119 -0.001413791960347368 -0.0007033263988188477 -0.001247169742914781 -0.0009979487428423976 -0.002025549768092539 -0.002370662692565527 
0.02412960996211166 -0.01536770365913764 -0.03535367725853462 -0.02886992950996327 -0.0413447138146586 -0.008640772114792859 -0.03229596234215879 
-1.098794161569344 -0.9826181606933857 -0.4365227006556732 3.422165151377206 0.2643555864328757 -1.149464245149079 -0.1360727932418223 
0.01293674379826847 -0.006652916867677617 -0.002537788998748251 -0.01461906590061186 -0.003846210248969218 -0.005996621005760724 -0.00515564702247792 
0.08144886355987774 -0.005726645264800844 -0.01574167561624063 -0.02998190140636869 -0.0405960087697117 -0.03182304849038717 -0.03663423088338371 
0.01422722254986973 -0.0005306033723055243 -0.0006767264907336019 -0.003121431946370579 -0.01183337661293908 -0.00421561264415389 -0.007295501711380529 
0.004576939242614052 -0.008308407494935935 -0.002517070787560729 -0.003596402215388455 -0.005346902899266222 -0.001665690586234944 -0.004608945200782706 
0.01588918452511181 -0.001983008542481958 -0.002905663510496179 -0.0106639958168309 -0.009810645448110724 -0.006917641215116152 -0.01014019891028024 
0.002139933386333042 -0.0004184932758598047 -9.142615429465302e-05 -0.0007314416543990806 -0.00554842052120513 -0.002156593230334305 -0.002732480773662892 
0.05466415983981851 -0.006518666760906319 -0.1285715418972444 -0.00671648925403565 -0.05076231380463165 -0.02041210362220541 -0.08973203773576324 
0.01727757443612004 -0.00351601214850694 -0.02607345204492581 -0.006397921333301652 -0.01812214009677324 -0.001544266402737831 -0.01247849221494447 
0.1061333512483572 -0.1078794515435379 -0.1616084223035188 -0.08159706729699936 -0.102939991779919 -0.09131348264008859 -0.1564976274225859 
0.003897537040062144 -0.008992214686212167 -0.00374499772222014 -0.006550632798331265 -0.002294445293615788 -0.005140661454899508 -0.003256716660396056 
0.002634161654877945 -0.001670806378045687 -0.0003964209254145222 -0.002243408894531624 -0.0004678227870060957 -0.002887769349555668 -0.0003463670283971206 
0.1109443440014296 -0.01366514847215451 -0.00673390033856271 -0.08283015263622993 -0.05368421725424913 -0.07310028426142429 -0.02709138171717466 
0.09384000903864938 -0.002428713941590809 -0.007212924740425657 -0.02913410062050344 -0.03116965471086991 -0.01445163231713853 -0.0253028212970656 
0.1212234097013611 -0.01379844947442436 -0.0007140053736647832 -0.01550163584230114 -0.001104602980561347 -0.04135635245209083 -0.0006765792065895742 
0.03651079993225477 -0.01809485910490478 -0.07784316557509756 -0.01943584862273735 -0.04406669202519418 -0.01944693625011122 -0.0605162886436748 
0.005798835929944329 -0.004994370969973115 -0.01030722373706251 -0.003809302873741389 -0.006076011958225903 -0.009302155133867949 -0.009888556797462585 
-1.604439183728529 -0.3052577579405832 -1.248088456407032 1.999721171169673 2.427726870244768 -0.6444784686770921 -0.7760027846972727 
-0.1059963654905558 0.4741505930778124 -0.001937937277764068 1.117973852333633 0.6459531829388047 -1.511984855156406 -0.02985058106459964 
-0.1497990513895674 -0.07913497111324476 -0.001403808001025443 -0.02185019720562477 -0.007321446526993292 0.3456786970225196 -0.001783087054512394 
0.03941337272618262 -0.03177603366673536 -0.08586440819078681 -0.009943047279358143 -0.04266686190541677 -0.01322182502290087 -0.05919916844500808 
0.002621015914810326 -0.002194286025424043 -0.0009988390527670664 -0.003925244303900926 -0.0004288991375919029 -0.001324575227280777 -0.000767162180333118 
0.02144426496455666 -0.01042807115602818 -0.00725032603291267 -0.01826722674074928 -0.01195188176050379 -0.02737131928615427 -0.02157542975212184 
0.03922656194763744 -0.002464920799158484 -0.002058222733070246 -0.01666933834684124 -0.01284261481205205 -0.009091887083484617 -0.007764427362782597 
0.4276318855705938 -0.273877479726577 -0.1076663547526937 0.2944714891840538 0.2603415559116894 -0.2468250360259422 -0.07912821212956431 
0.2901095355693903 -0.2370677528173333 -0.1275631230210246 -0.241424836408713 -0.3672895755856688 -0.2952095549791883 -0.1947906026428812 
0.0006547662969308066 -0.0003924480165917294 -0.001401125273581862 -0.0003100992988958595 -0.0008510824175806514 -0.001176773392694199 -0.002214413747585643 
0.00947175391073291 -0.001699483935415609 -7.37159155600095e-05 -0.002925032539455553 -0.0007931235866380271 -0.005654710510028684 -0.001095372305329197 
0.002437838757508064 -0.000335656941024438 -0.0003281625773370365 -0.001104052494137102 -0.001968229627989665 -0.002392033036752681 -0.002375853928983838 
0.05087043986602691 -0.002234390690405454 -0.04014180844458604 -0.01922643564662336 -0.01847568359312656 -0.004195233585925983 -0.04441660410458363 
0.07738320919301861 -0.009325122622798275 -0.005080282912031618 -0.01041726115065452 -0.05236746741042295 -0.009925529048892098 -0.01587694247147648 
0.01667443578341957 -0.0005588312380281318 -0.0001055684217668417 -0.01964444889706704 -0.001202869542125334 -0.004949321102053664 -0.0003017093891224653 
0.2739741018625576 -0.03153944364217156 -0.01101369665868727 -0.05426389377387887 -0.0232379752746653 -0.1425959290464706 -0.01378548467730109 
0.01371590667070869 -0.001044462857487753 -0.02577368462028004 -0.01065023971983117 -0.011181664306368 -0.003681827325696953 -0.02531412707547937 
0.1783434482097242 -0.1938680573232688 -0.1638648028662152 -0.225265651598714 -0.197162018892498 -0.1949412967316613 -0.1539253891012602 
-0.03394593429582527 -0.003850963614813671 -0.004488405564172041 -0.05974814625368592 0.5995243834867299 -0.2552715746476947 -0.04482095920765236 
0.01231479194682061 -0.01859639812175819 -0.008308398557437447 -0.01538539855440992 -0.009374999910423541 -0.01255018205739156 -0.01246172982442856 
0.01288253699707627 -0.004848472141418113 -0.002841310607672813 -0.01647843481523653 -0.008823423043110058 -0.008006468737787351 -0.008940619389620342 
-0.04735822740764647 -0.06285402918063691 -0.008987632101191438 -0.06787575009056397 -0.02962067385193262 0.1275257264246869 -0.0424897768149552 
0.01064283108805208 -0.0002026497258810898 -0.0002049928877057649 -0.0174448312349683 -0.001095626333139937 -0.009454992050522045 -0.0007567103685598278 
0.02802661179077193 -0.001099569396758598 -0.002415207421730493 -0.01243575399705294 -0.01048552379162942 -0.007771214581902614 -0.01168857312386341 
0.0007350644636146956 -0.001104242468146081 -0.00040831501347586 -0.0003570290551725298 -0.0007913757766563466 -0.0002747810317495379 -0.0005098708188828474 
0.03108546831795311 -0.02328016600127289 -0.02391931020035989 -0.01354938231656946 -0.04230371556824077 -0.01172819323147484 -0.01977718692207316 
0.01484620862979919 -0.001106193635215585 -0.00363257015984784 -0.007275919376655787 -0.009663910584594775 -0.003910424103528568 -0.01192899668202169 
0.02953460846884492 -0.03577574714306349 -0.02098091421888232 -0.04053893068927499 -0.02124582719503191 -0.02592771764187534 -0.01984045354646276 
0.08547370212530457 -0.001216376289069237 -0.002542332336277595 -0.06393234695212702 -0.006328102470638906 -0.02814543302972431 -0.005896909682518124 
0.0381309747266935 -0.04719209938020573 -0.01314826573494745 -0.06817320394594513 -0.0781736988338373 -0.03313034266657879 -0.03928504733285986 
0.008849966507577554 -0.004427325463098879 -0.002267755589352394 -0.004162907374684508 -0.005009435129778921 -0.001894783883160945 -0.009578970672398743 
0.107566271672797 -0.003302732329098538 -0.004831372507753576 -0.08995172773498261 -0.01459426039342653 -0.01828147297629297 -0.009178773943436937 
0.1682484082828783 -0.00710970753979452 -0.00156279216623191 -0.04496957956519419 -0.003022645027264544 -0.07025763882219702 -0.0035073662542609 
0.006695822748247185 -0.003715650650006571 -0.007335683733096988 -0.001838202514173053 -0.00668596726572663 -0.004901890236206363 -0.01201121556956673 
0.01029789296218704 -0.0001181221715084448 -0.000526149556933531 -0.0068427824969239 -0.0005769173124993989 -0.0113162614650803 -0.0007207492560607158 
0.007533907306278655 -0.001129682904131065 -0.0001345627965083678 -0.003892924864424313 -0.0006003923752232745 -0.007430752821563581 -0.001134055588519154 
0.01531935338391452 -0.02528942382049683 -0.01544789730221141 -0.01964530283165044 -0.01346250390479466 -0.02108465340925409 -0.02057409213136727 
0.04249994835649554 -0.08451434644321902 -0.08234847713952061 -0.05453830058756384 -0.06047177687690736 -0.08737580723098351 -0.1163081402742713 
0.02014217918610455 -0.02185649635256723 -0.01754140804297704 -0.0234427146091512 -0.03687675825445225 -0.01967803174792723 -0.01893521993748047 
0.03336600358232181 -0.05041103514666413 -0.03379988506276666 -0.02931889940913962 -0.0669123432330697 -0.02752398950060768 -0.03081512880531544 
0.004989515681661948 -0.000177885731393075 -0.0003398863132857777 -0.00466153275085356 -0.009588545035066639 -0.001588493498234121 -0.0005436782261276868 
0.08900778361832787 -0.0574470110108017 -0.02632902015764791 -0.05682486276872153 -0.03989165967557443 -0.04677484041436752 -0.03265962500437983 
0.007085188027315761 -0.004259808730182144 -0.002343482786301465 -0.00364655173518836 -0.007973365176223013 -0.003900704120509999 -0.005067124200970459 
0.2613788007074615 -0.3148923702758314 -0.3045343820914716 -0.265746683255051 -0.2825823931509735 -0.2657399654986688 -0.2641260427549917 
-0.5915450755261126 1.255633319554224 -0.1565006200135049 0.2986431227538802 -0.3206600223296012 -0.5595536035235894 -0.1292971827150579 
0.006560099027253469 -0.000355338678251023 -0.0002389912147390853 -0.001905127091932364 -0.01230182031154011 -0.0009072217416784609 -0.009216210317609221 
0.00198345887052737 -0.0003122380326555626 -9.461329012938541e-05 -0.0003861334417282567 -0.0003478328863763006 -0.01209566320919321 -0.0002182010111866636 
0.03728307799448353 -0.03543515047954284 -0.01879944505088721 -0.02061778418368482 -0.05636855707055011 -0.01771187868964104 -0.02184243699024304 
0.000273697872968066 -0.0002274179087990775 -0.0005049177536503955 -0.0005483159450752128 -0.0006220446861609634 -0.000655980116531013 -0.001221019827470232 
0.000647397946059292 -0.0006606834285061883 -0.0005827875522141796 -0.0009908595655287354 -0.00132675557181219 -0.001100089981394466 -0.001252052272809109 
-0.1755449011111166 0.4741892916786276 -0.007564556857580808 -0.1548417549555543 -0.07364939942741919 -0.1634577086419768 -0.01701724884693708 
-0.1641264949007973 0.3887476833580566 0.2908123243412864 -0.1734980740929898 -0.07866718719790848 -0.2005095977482023 -0.09383352756131755 
0.03793918611553852 -0.002202366380683473 -0.002323040051483284 -0.006341884642242116 -0.01717583616174617 -0.009985032715969115 -0.01706299121116164 
0.002865054311408279 -0.0002476884905945648 -0.0001344057056583494 -0.0003471275765611872 -0.0002978555392639351 -0.02226135962260595 -0.0001914824181228041 
0.005449985511542331 -0.0001016040727697712 -0.0001026525143008852 -0.008880202611495656 -0.0005521834769913651 -0.00479198101914551 -0.0003807164534418535 
0.02559236479721957 -0.008148356001445378 -0.005298956340037256 -0.0224570579478848 -0.009511105354696117 -0.00435556309544872 -0.006153752472268176 
0.005704895174615568 -6.581688594881581e-05 -7.525059886838115e-05 -0.006300864778944314 -0.0004086466783675064 -0.001635225994606202 -0.0003820394423202986 
0.002714890163631429 -0.001860953792696907 -0.001056031515395852 -0.001236344257180435 -0.001535867954618409 -0.001247374281008274 -0.003060387143722536 
0.01148623922102557 -0.01097849973852534 -0.009372251739324934 -0.01521907062408276 -0.01051078930747144 -0.01423350841393353 -0.01020079465174503 
0.0649669562564361 -0.04536148165676564 -0.03522321174503623 -0.03703092330321332 -0.09753049241153421 -0.04480187512060161 -0.05522383125075502 
0.03659234849957482 -0.009951187684516713 -0.00445881939722424 -0.01892116356055887 -0.008086116934299052 -0.02569828801760538 -0.01222541603038679 
0.01213112225197605 -0.000269753918158001 -0.001382967363934255 -0.001019733045213824 -0.004744014099055207 -0.003744186982650456 -0.004457320691089638 
0.3835456109891014 -0.09986086378744545 -0.02856601740639947 -0.2093811687541817 -0.03321091202247155 -0.2191766202981859 -0.04311796542238736 
0.002427373549315099 -0.0002966271784313871 -0.0003472343072952607 -0.005810270366506208 -0.001593630877781681 -0.001637872196451823 -0.001095641638578165 
0.015537277802209 -0.003811126028618667 -0.0009264504387651838 -0.00313988346256095 -0.004029134092237384 -0.008665930426392828 -0.004179289898110252 
0.0008979848720710341 -0.0009376178416918993 -0.0006394001658430512 -0.001165433921104049 -0.0004751410228676435 -0.00133612723720343 -0.0004387395614422552 
0.0513974474519228 -0.004309881461082525 -0.01019888772080504 -0.02905611419361993 -0.0217542606181023 -0.007835435894949484 -0.01100802627607579 
0.01235440574112165 -0.0005756117356666835 -0.0004073906959479461 -0.003037812289957762 -0.01298532299210925 -0.002587891901225718 -0.003470709739723687 
0.003451090186740517 -0.003922175988188726 -0.0008522384392395174 -0.006390706296291465 -0.001176474838731726 -0.008983157101806827 -0.001079293054308356 
0.005188222218706253 -0.001368900097725653 -0.001306221628261813 -0.003854114232253036 -0.01951027720062205 -0.004221078773898692 -0.003324110330399577 
0.002732648627048119 -0.001413791960347368 -0.0007033263988188477 -0.001247169742914781 -0.0009979487428423976 -0.002025549768092539 -0.002370662692565527 
0.01610328684978575 -0.005044862689415685 -0.0003710288680949058 -0.006259873900868537 -0.05882474739631087 -0.003724467220099874 -0.002283922032501251 
3.092133180606106 -1.807675734358224 -0.6217476470677078 -0.7840649057413815 -0.4982440722670505 -1.449619940586656 -0.3096206214727361 
0.0002400373558568953 -0.0004585075741782495 -0.0004976435610676119 -0.0008260639067733481 -0.0004355558629417809 -0.0005405507490864624 -0.000366611667450534 
0.002412694494306499 -0.001844569640566383 -0.003594604518284366 -0.002143951349088975 -0.003965273826616759 -0.00490900847744621 -0.004834876452012173 
0.1764061981133386 -0.04652977156853892 -0.017123140525631 -0.1082558994156467 -0.02390802265438936 -0.1146642137170557 -0.01987888209390741 
0.05217242280688779 -0.07735509532063085 -0.04872288631815436 -0.03482980371043588 -0.06822159590809626 -0.02642751900203584 -0.03390843885694735 
0.01404928672217473 -0.02626920113466219 -0.01730766403320513 -0.03406916913625576 -0.01916018999863489 -0.03549363204498571 -0.0141789914952221 
0.04566104835768247 -0.02722315208273494 -0.009912128440929913 -0.02805451487113517 -0.06187419644779903 -0.03220114649538155 -0.0239991941361882 
0.03652627629933857 -0.008063718955298949 -0.03101703190554542 -0.01088661013278966 -0.02781856548269248 -0.04201101563776113 -0.02195469136838553 
-0.06991780103041302 -0.2230459651827588 -1.398278692485684 -0.2528509671468501 0.2085256506498956 -0.319833374312724 -0.7877941989780208 
0.0990727855445362 -0.1999869140429136 -0.1679806328070353 -0.1159605024455284 -0.1355337631444992 -0.1167506372427077 -0.1318322473580818 
0.002182889740479009 -0.0006825110804920407 -0.001840431759443128 -0.002623734850939446 -0.002899301420207152 -0.001759511420768368 -0.007524286721250538 
0.002027761423803202 -0.0002444609269294736 -0.0002558844100429799 -0.0009026982674913728 -0.005414389067678589 -0.001532301489773575 -0.001976825666739912 
0.03226376379209104 -0.005154592213113289 -0.003031161116324033 -0.01509443080728823 -0.0284154459389608 -0.03219531430907775 -0.01111778202709279 
0.005884396405216572 -0.001441271139804117 -0.00177151418266235 -0.005249874075450692 -0.005060749977493618 -0.006189815627227421 -0.005749973842561349 
0.002899819906744532 -0.0003683597419597361 -0.0003141714740164538 -0.001301005288883061 -0.001431623646208092 -0.002771172331076912 -0.002112682119172735 
0.04571292897520025 -0.0245159734732777 -0.02870537508492469 -0.0260785958679519 -0.05440745706533282 -0.04311037717054536 -0.05393449322768789 
0.001136125305690214 -0.001880979451154254 -0.000453065538273789 -0.0008905334884029213 -0.001382454553743346 -0.002410358290130206 -0.0007311693881545252 
0.05484024768596418 -0.08643448189840149 -0.05067739582017477 -0.08547213575406826 -0.07642139075765185 -0.07548499886990759 -0.07065703989756056 
0.08595057162698215 -0.07387323903389474 -0.02966200237417087 -0.07351237154131726 -0.08293577379513378 -0.06152479330068295 -0.05282708079287419 
0.01078859236498114 -0.003613164332371259 -0.00161180994573594 -0.003034451656994986 -0.005612420951178081 -0.005051621994870689 -0.004232720178676217 
0.003118503683884642 -0.000219057974269766 -0.0002478504659918446 -0.004811232541568312 -0.000767587247048837 -0.003556108769986212 -0.0007532143901271396 
0.002437838757508064 -0.000335656941024438 -0.0003281625773370365 -0.001104052494137102 -0.001968229627989665 -0.002392033036752681 -0.002375853928983838 
0.00309378150981923 -0.0002189228575209158 -0.0002477371869455465 -0.004804617451692527 -0.0007664196217544934 -0.003468320086402801 -0.0007520278048831818 
0.02604204700196822 -0.01815505109073969 -0.01390645568486271 -0.01382294365670056 -0.0240435837887247 -0.03792954333952589 -0.02418510500168365 
0.03319808291450026 -0.03328264866138318 -0.06716835913399578 -0.05737981033463763 -0.05390025638021663 -0.04234667107666258 -0.06420236022195318 
0.002508587973487194 -0.003613454252492149 -0.00312127261090933 -0.005599028769212599 -0.004347498129335205 -0.004300343280536707 -0.003118091526741606 
0.005562879758589534 -0.001510352073264459 -0.003847786913611646 -0.001481058755410688 -0.006877069024203661 -0.005188865598439761 -0.004653564386328082 
-0.05057303507847806 -0.09532487647155997 0.4775321353688424 -0.00898315767960306 -0.1021479029224786 -0.003385034151096883 -0.06130941273437099 
-0.2133307186577998 -0.06649077263529185 0.6021855398375212 -0.01338835208253175 -0.2029136241339053 -0.02021995865576125 -0.2958139311976508 
0.003343507975840169 -0.001773782423835382 -0.009997331590890918 -0.002441037808969135 -0.005799818965719176 -0.001203886901836761 -0.005718110479336729 
-0.09380926742377513 -0.3891519449049746 -0.3299265046290637 -0.2714203664575991 -0.3278934481806621 1.213732463760448 -0.1674128086459292 
-1.062471391083742 -0.3042189377044305 -0.8647114513952812 1.448328843367329 0.2776230635903666 -0.4031370095741806 1.425935605780172 
0.5411463027672031 -0.1100531668296245 -0.00510847123240311 -0.09243558669282258 -0.001991380301847537 -0.1284525575713204 -0.0008896584168647466 
-0.755960061718933 1.903875290396513 0.08800490613246748 -0.4838009973569172 -0.3251238295907266 -0.8770065778860551 -0.1876245676721268 
0.3919756734109004 -0.01459773251387469 -0.08697859400862523 -0.004230058627622095 -0.06415407077469122 -0.003403258836930783 -0.07105375025659633 
0.1800917455309995 -0.0002654739496893265 -0.03681993428685985 -0.0007922752689944778 -0.02957958133357448 -0.0001471768862632257 -0.02978885417261258 
0.01575153325582111 -0.00177930082164731 -0.0006217495861460991 -0.01214249861089646 -0.006322291059002562 -0.0014026513150351 -0.001906868239255753 
0.2235863232723815 -0.01495543147400535 -0.0007966167401749452 -0.04008141124065342 -0.02881849092816915 -0.01454195858957821 -0.002744574014915297 
0.2949333852567358 -0.01994415131325653 -0.04304692889260887 -0.02307160514245349 -0.01171829991961861 -0.1178574013110516 -0.005770350973916978 
-0.2094289454456961 0.1218175939124056 0.6438591445214648 -0.1967277926176399 -0.2345000025312332 -0.1439399222733823 -0.1286583361526171 
-0.2273003489639524 -0.01194229214217219 0.3124268636733979 -0.004278986308731699 -0.05465904611111955 -0.006442301181395911 -0.07370100600109757 
-0.4775603034738761 -0.1301544322734089 -0.09721895449696155 -0.4423502887824551 0.3713669618409741 0.4361986385857652 -0.3196119407797144 
0.04396870766903024 -0.009342967159963583 -0.03684887010744736 -0.01318170607982212 -0.02296587344279164 -0.003539923737908015 -0.05532465031770954 
0.01066629185780621 -0.01399992641569209 -0.01188322057258432 -0.01101719263845281 -0.01003606246758017 -0.01302112962573407 -0.01403795052859871 
0.00377643104644268 -0.008702185494637775 -0.0005543098809588466 -0.003016224220844836 -0.002470713643440194 -0.001507120731204714 -0.002563704263560169 
0.01404301689510025 -0.002683441401588162 -0.002004196105473626 -0.01224984080054568 -0.01567079424323478 -0.00632205700967796 -0.01231836495000108 
0.02247210818482378 -0.007030806625092326 -0.004195415935262102 -0.003308634781866152 -0.007679339774984336 -0.002779345660114111 -0.006384709085203191 
0.002640118627273471 -0.001589629835992408 -0.0009120829560461285 -0.004353291423945321 -0.0004533380165985242 -0.002353285378042144 -0.0007429635470827561 
0.01943074174954306 -0.002381338087375061 -0.002330305475317037 -0.01850547998543552 -0.005836077057155032 -0.009620268921615297 -0.004933511274374613 
1.415404760011966 -0.2364653911701404 -0.04486443706058443 -0.4944727835553047 -0.09115919608397967 -0.7162191253700997 -0.05577894393224676 
0.05083933889791967 -0.001818491799327704 -0.03139447544364025 -0.005427158544618491 -0.01679303299274687 -0.004328848351855766 -0.02881281068914176 
0.016993715699798 -0.01744358535133402 -0.01282910557761799 -0.02812148697050816 -0.01319100378348068 -0.01857102452987389 -0.01535053104914383 
0.1193381794125372 -0.000290861733111338 -0.003533171251999696 -0.02979076299260979 -0.123672940471506 -0.003907639791399918 -0.02716400017678029 
0.0623756369424432 -0.002577919536870075 -0.01311163742047181 -0.01387004056890832 -0.08781806328831936 -0.007234978217513342 -0.04932458272016775 
-0.4749465106122512 1.472587128960571 -0.2698534751060701 -0.2345438423651343 -0.2973634727537404 -0.3820277606612303 -0.1811221820088965 
-0.1311605055647344 0.3156889234781242 0.5123068607909804 -0.02618802249195481 -0.2583744115149175 -0.01014816025289467 -0.1544310097572877 
-0.8883714705741813 1.795337679890548 0.5350609414891941 -0.3916964710140291 -0.2147767197177929 -0.8836502455290722 -0.3300599291197133 
0.01198834520158287 -0.008273264667354953 -0.0005691847198764543 -0.005533805144132242 -0.004002728027883472 -0.0181165971167317 -0.003349968459814328 
0.04740160460207347 -0.004822268492903172 -0.003374835437474364 -0.03837338280035522 -0.02961646131641763 -0.03617993687819135 -0.01516632182389414 
0.3052129404503854 -0.01169092251476188 -0.08181038214138725 -0.05427060542597938 -0.1777830568566278 -0.03799340016775966 -0.1581949713058025 
0.03578321245580575 -0.003542168227192761 -0.003748380170758851 -0.01107899865543935 -0.01325192445118437 -0.003979766077786714 -0.008772728115890811 
0.03607823619489763 -0.003578334575846795 -0.003347502632246018 -0.006909375710956141 -0.01651629150585369 -0.01055550909151015 -0.01564791228401915 
0.0007109171937184957 -0.001366471052825621 -0.0007076629633774069 -0.0007616487367778968 -0.0005133731787817748 -0.0006105275940526292 -0.0005013560376737593 
0.02282324834237691 -0.003059431168719396 -0.0004892828872875938 -0.01418860884713089 -0.01124516977246324 -0.008811844958929066 -0.002666450481898324 
0.02213295835858199 -0.002539622678366497 -0.02604916058356306 -0.005366781491338427 -0.01658557104502851 -0.004204887302167799 -0.01836819530483033 
0.004014776211614355 -0.002316342988536684 -0.000527023285668063 -0.002670129460033607 -0.005936349698514918 -0.004989498503624025 -0.00180826832897434 
0.01025670694361357 -0.006241033128139004 -0.00303506086989248 -0.009563221833241526 -0.005397850494438612 -0.01263366379193952 -0.00650775998862406 
0.03443615403838476 -0.001786939168386858 -0.02042119974458416 -0.0123282401936539 -0.03224305228599728 -0.009836282733710731 -0.01816064456663 
-0.4464545305894031 -0.2675764923450594 -0.006607527563723622 -0.2837890740892612 -0.234593182514524 1.168816468856574 -0.01484037916486535 
0.2321987514194222 -0.04411972605344882 -0.5237448648257814 -0.039826919531886 -0.2225839014780845 -0.01907827975663129 0.9075347782067975 
0.01475051492146518 -0.0003556713554156061 -0.03131120460302095 -0.000181920133025488 -0.01237764714291863 -0.0001204148623487125 -0.03423995764560778 
0.0326371625434942 -0.0001242883137839249 -0.03295625384119157 -0.000113031372655667 -0.01063350138850637 -5.7846258468975e-05 -0.03667411984693066 
0.01409145711012023 -0.02698413255675719 -0.004628705772074022 -0.03134840257196273 -0.02237100322639319 -0.01943207920068837 -0.01062715290520917 
0.006411585856371621 -0.004949709539172169 -0.003799516599323031 -0.01654600896474203 -0.005303622318929844 -0.01061340277683134 -0.008126928054515752 
0.03093778704245008 -0.02576003268958433 -0.007080823731126011 -0.01339520171315081 -0.01956748325135743 -0.0197231166662963 -0.01295687427648513 
0.02017814353473808 -0.002710798437727696 -0.001263970607046581 -0.005245713809566606 -0.007865426788592041 -0.00515294835258037 -0.006643340953114843 
0.07739144287581584 -0.002595331588829927 -0.01138774217731348 -0.02568920887193077 -0.02596482071851894 -0.01969604842102565 -0.02456159613100073 
0.01351523910957533 -0.0001993969489745763 -0.0006771426473854825 -0.008514519422612063 -0.000992635401533894 -0.005216928700586598 -0.001198757069325009 
0.03101108986885115 -0.01422630173807473 -0.009802033034840835 -0.01661865198960694 -0.01513516787316718 -0.01904729936314348 -0.01622921377748634 
0.01081805060793113 -0.0008772028100376708 -0.001855464979605558 -0.008735783659767559 -0.003207960675014948 -0.002410242072687462 -0.004005846031162517 
0.04489035488484675 -0.01764782051866952 -0.01570313524258958 -0.02035673377507419 -0.0195325884807844 -0.02720942926183081 -0.02192067316382152 
0.06896547947770885 -0.01070254001691774 -0.0006696612605557519 -0.03060811461121414 -0.001708356927599742 -0.04213898483819742 -0.001750379166292125 
2.127487823719949 -0.8459772173012693 -0.29140538030822 -0.289239886206249 -0.5508250999442191 -0.3230192768459628 -0.2228639200504523 
-0.1799605010461569 0.5453054292223656 -0.08275607595783108 -0.07071604602009682 -0.1142054779991541 -0.2154133401953831 -0.06811414486363052 
-0.2387687476471326 -0.1029652865235434 0.9038232262794397 -0.02201334951512393 -0.2883584065846015 -0.01236921160249193 -0.08943731731506915 
-0.5148002403569527 1.099269293163246 0.5078834479189437 -0.08622729206005891 -0.2600601009205731 -0.5375166769982685 -0.1118032616403319 
-2.480837304452979 -0.0008041359755743919 -0.0002007733478506789 2.145746817737437 -0.004033377184117139 -0.002311235614802926 -0.0007981251677248819 
-0.7158705833240877 -0.2274399464715584 -0.188181707036588 -0.6728576800998632 1.893203936336572 -0.04212605663709424 -0.2501527015315037 
0.03174427113288114 -0.6100214513245029 -1.398266030185994 -0.194868969894528 2.428921334931375 -0.2261505930540655 -0.8135010743990231 
-1.296183618106723 -0.01372909520531484 -0.002054559349053053 -0.07080906395262421 1.330903439890846 -0.3241426988578771 -0.08816399184533463 
-0.4060222441782104 -1.755586045969661 -0.236089252640044 -0.8751302659219579 -0.4529329068418114 2.193591581473195 -0.2127463080751779 
-0.9625949263884529 -0.4083978914492649 -0.01882404808795549 -0.157376389683125 0.06657746312872681 -0.2532358311904099 1.074765604542179 
-0.5736598825636329 -0.5165972296237279 -1.018427274819174 0.5414647998796353 -0.3673215159981596 0.5413809151456289 1.633329072972848 
-0.2768107214694112 1.073765417447089 -0.1548799449853483 -0.0837486820538213 -0.1823943547956148 -0.1317610419869014 -0.1281760227075066 
-0.7960414781886651 1.7931488985323 0.5665966284188176 -0.2214504703036549 -0.3367684458647718 -0.8044546917400359 -0.2119421058152373 
0.3946978877105486 -0.4102297566914713 -0.1364702371384122 -0.7135983328072704 -0.6361954083702648 1.399763268081162 0.5345340594108542 
-0.6006488622485601 -0.3795491702026796 -0.03295571387637376 -0.1348114055360101 -0.2493206637747802 0.03201548561431464 2.453213044348077 
0.01514173190645443 -0.005248427394851832 -0.0109596909250658 -0.01184918826640075 -0.01875646916720435 -0.009101202438128314 -0.01859660323747874 
0.05351112364822099 -0.002622947738628781 -0.003833371199084195 -0.03400190891456944 -0.02954348323795961 -0.008979674936786938 -0.008982826447335175 
0.1378618905908283 -0.007546059049915544 -0.007589747907794604 -0.008485298551379692 -0.06734822270002189 -0.01789838160347821 -0.02076808965449279 
0.006770138584010456 -0.004715797683932882 -0.005684704701791108 -0.006460062211040155 -0.01216201605334995 -0.00430592129127075 -0.007479408733153113 
2.226044028969403 -1.442329889749111 -0.1186036090224439 -0.4015742030578163 -0.2789573412254688 -0.5551080736139029 -0.09020038101578216 
-0.9044159859469891 2.601629713043675 -0.05623911837378535 -0.6771157422402135 -0.5860365643862123 -0.852529388509276 -0.5604071636622449 
0.05521274931833695 -0.006534226501901097 -0.01299982860634432 -0.02308608702320195 -0.02695512138385849 -0.00767622815939131 -0.03504792977763423 
0.07859329515388389 -0.004445853096841793 -0.03892355511316872 -0.008357393982891662 -0.03530658664490482 -0.005621610382990905 -0.02630846126756075 
0.004272279181791132 -9.862868704687059e-05 -9.624980215926488e-05 -0.0001906975396633888 -0.0002987215556918901 -0.006550885941274469 -0.0004716322867119749 
1.627114778300665 -0.8688176858536298 -0.118470751518154 -0.2523690982368311 -0.1632973399684164 -0.4111671604848579 -0.2194643126497241 
-0.2614664181902483 1.23106118233909 -0.165513663719711 -0.03772249661094462 -0.1855486553442066 -0.3224524383016089 -0.1120779230817948 
-0.2708510527441957 0.4309681552612056 0.4183118236451723 -0.09791560923181981 -0.1738175884984633 -0.1938488973266528 -0.2139092194316403 
1.246299433129419 -1.123922171629841 -0.02607896653341278 0.3443537713697631 -0.2005348741392584 -0.5861297910695139 -0.02844789572205381 
-1.23660700385319 -0.6931654785806367 -1.517196665065177 1.619298909748666 2.77406242929283 -0.4461742424596702 -0.8203210379355813 
0.04756459859357002 -0.0008356625595269615 -0.04921477449208437 -0.0008628462436838407 -0.05204632359142925 -0.000192207383254794 -0.05371963986983441 
0.04670778662782973 -0.003349593846525185 -0.004686827679681819 -0.01780630977706602 -0.03193927949050678 -0.01057365107321117 -0.01809355807749888 
0.7171561517200802 -0.6523051303610097 -0.1365867481527394 -0.491303046954894 -0.2889705430434479 -0.7165989151990603 -0.2236533761501034 
0.05764977668718017 -0.05324214822114292 -0.05177649803060321 -0.04893739174846845 -0.09032830262363931 -0.05735925119371885 -0.06550210927730075 
0.3000309387027765 -0.3784989141952473 -0.3199139087563406 -0.2667152907422928 -0.2954751873679884 -0.3124612791757339 -0.249428458739645 
0.007896064264638344 -0.004831023433799174 -0.01223332802020152 -0.004720836201139377 -0.009618038995408786 -0.004974676079653978 -0.02295276635460237 
-0.9084753672482268 -0.3405707871466963 -0.04968985651029721 2.073355599619725 -0.07418567182386597 -0.8326078579085205 -0.05039499281953493 
0.04044550464636784 -0.04641509753593008 -0.02687977919359269 -0.07186497021955558 -0.03058725046506241 -0.04604835135269565 -0.02599643972640208 
0.009194847532053844 -0.0003141083957669144 -0.00246024770367702 -0.002310883881106415 -0.00612408875628271 -0.00179073303128383 -0.009462276621111645 
0.08630698632652675 -0.001967906292119549 -0.002787850777844226 -0.04571627272697292 -0.01861668099399804 -0.009044450719608672 -0.00625236538179263 
0.05649435585187069 -0.05310174610532505 -0.005895892710644715 -0.05330321242959254 -0.03571839771855501 -0.02535094229109761 -0.02402934255925161 
0.06171018783576788 -0.004933012921862542 -0.008884483235497212 -0.03906712121823781 -0.03184002126445983 -0.03414756065212411 -0.05316659710970538 
0.02857923461188103 -0.002117761750424288 -0.002497184349122109 -0.01007196201645712 -0.0113858635477799 -0.005919482343759572 -0.009899848520616946 
0.02335414755603543 -0.007942919180997186 -0.001504550013040448 -0.003374610203169888 -0.006763428374646897 -0.0006273789137303946 -0.00496413573204815 
0.02491466570771529 -0.003103735663683552 -0.001863971859472611 -0.01732275090764816 -0.009603384482589915 -0.01094092965090006 -0.009266749212285159 
0.01362267298841011 -0.00309798280618003 -0.001514457182151916 -0.00767470299379251 -0.006368011790384093 -0.002903275322303053 -0.006078423589946543 
0.02383703276262872 -0.002866977621500709 -0.005820908128929431 -0.01450647834492517 -0.008762358834606843 -0.005641241563918776 -0.01077313076527566 
0.4258049436259201 -0.3732548992142702 -0.5186357629409241 -0.3155560622783247 -0.4639479879024299 -0.3103000239597727 -0.5115080841271843 
0.0123173470352054 -0.01200608338549409 -0.00502513470774683 -0.01224816440469861 -0.00322210234558984 -0.01012721850194545 -0.01466638656103599 
0.8617564008123423 -0.3958170331681102 -0.04465567092923705 -0.1491504759899895 -0.08386414905660539 -0.2692761361017735 -0.03126001993385468 
-0.144500895167318 -0.04692263350816566 0.3547865983943034 -0.01004518230802532 -0.1316990102310842 -0.01245246332930677 -0.2003088473567163 
0.005601407516736575 -0.0002271929690107034 -0.007928365532245827 -0.0002865501841541154 -0.0104165957674052 -8.554708544035447e-05 -0.01486008552450095 
0.1268018056329468 -0.02920514535219405 -0.01710138961309806 -0.0535047006234329 -0.06252630658107874 -0.02472928215451545 -0.09131060014072249 
1.886860436781062 -0.4628316418327905 -0.9875017925860956 -0.4688449278942021 -0.2978105299614789 -1.099711066198071 -0.207668382786867 
0.04283062427247186 -0.02731361898126127 -0.0411564298013558 -0.01921847859030187 -0.04671862950877047 -0.02815255155651992 -0.05970363948108855 
0.04941666553541416 -0.02689618526864486 -0.009860337016437733 -0.01758942577897541 -0.0182990300021498 -0.02927374102208326 -0.01705671669628618 
-0.6135885138379469 -0.5286048280719956 -0.0252594393730002 1.554384371790291 -0.1997083858837837 -0.4084594255875868 -0.02823443475159769 
0.632505281149407 -0.1126041398255806 -0.4193475495249816 0.7675293138938017 -0.2740003530878422 -0.0141220955110276 -0.2701567094212267 
-0.4509751030193765 -0.09981864494660761 -0.8182586276845761 -0.03068002079003207 1.486563129468713 -0.02694521867547846 0.2944573627514021 
0.02168000109441828 -0.02290431997338822 -0.009854514075161001 -0.01246321989894204 -0.01533273697779778 -0.006690013189352535 -0.01334158389049001 
0.0059100944799047 -0.0004334564881429624 -0.0001530432003244972 -0.0006654294573078788 -0.0006645391368409262 -0.02060611527013461 -0.0005697003857694177 
0.005322047593605815 -0.002876792287630477 -0.0003968931070056894 -0.002113880692329035 -0.003473652744514074 -0.02709238997774001 -0.001906423793677038 
0.01182867752080144 -0.001545817297182878 -0.0009218708234476192 -0.001372808975834893 -0.004247544498058938 -0.001148567582250886 -0.002645593256882688 
0.01799998367054695 -0.02553399347875349 -0.01045557702114029 -0.01128067727262665 -0.01876235204178152 -0.0197404933553872 -0.02518990541479559 
0.006672924168450942 -0.005885932354267116 -0.003231553250934648 -0.01016477511548066 -0.001930591038845648 -0.005904057556029524 -0.002483909093914577 
0.005387549408600991 -0.0001019187578482781 -0.0001024133676696782 -0.008822634176619307 -0.0005453607061278878 -0.004774325474936112 -0.0003761736679798758 
0.01115327678412856 -0.0008012173630217754 -0.001786207745286881 -0.003395183430407589 -0.009777771919562266 -0.003622970020860286 -0.005829860485094503 
0.1640474909282938 -0.01202620114427165 -0.01576409788737702 -0.06554955605124749 -0.03458685025735463 -0.02484326433446878 -0.02909686751486575 
0.004873996888259096 -0.001811717253399298 -0.000804368466947213 -0.0005592181157836441 -0.0006347588282586466 -0.0005891629518280623 -0.0009698100544206283 
0.02221289568063248 -0.004691505626634518 -0.0009330746117303484 -0.008627223197091949 -0.004169495069978334 -0.01038836485225633 -0.003342007268809335 
0.03428578022803663 -0.01520777453969588 -0.06868575859885273 -0.01932682064150281 -0.08143071747753991 -0.02180155957976938 -0.04276876626247674 
0.07433536423442146 -0.009210064396756507 -0.001498133389135544 -0.03284748430249728 -0.03713169042233823 -0.0359520524511998 -0.0109411790337011 
0.05064934511872892 -0.005709301151848967 -0.005461189852631878 -0.008727540883366676 -0.01743656416532385 -0.007358823999639648 -0.01103932994907923 
-0.9176721841558272 -0.5923000818826468 -0.1532042413724189 1.742873251611651 -0.2298232403042554 -0.6111175438012252 -0.1187537442248804 
0.0087730268940016 -0.0006917704020059719 -0.01744253406089577 -0.001010066115672846 -0.02480601762924764 -0.001873429991623078 -0.02452258728614061 
0.004873897685509863 -0.007074683869343289 -0.0002555632867353927 -0.001345442127686522 -0.004879503425572185 -0.003680297480334094 -0.003005892507708057 
0.0114707349634543 -0.02596127134461406 -0.01242460102770302 -0.01721468884397652 -0.01332306285363138 -0.0164654428381053 -0.01242420742977325 
0.04429226914282192 -0.03310125666408245 -0.01475066404815806 -0.03399346874128895 -0.01443072970455696 -0.03994073245798254 -0.01541762041269953 
0.07618782703629652 -0.01100816433917959 -0.01039337265779819 -0.03083421937323072 -0.03453708002433401 -0.01242150181878769 -0.02448277465528498 
0.01212278423398429 -0.0059100088752733 -0.009823432791389971 -0.006728487415566284 -0.02292522980823536 -0.005398098850431929 -0.02267484604377267 
0.002998963471106102 -0.0002185276728851017 -0.0002474288016792984 -0.004626050472818069 -0.0007647601338305836 -0.003523094462306487 -0.0007503517342510991 
0.06820394524207234 -0.001524276936028529 -0.003064751966570794 -0.02377761813550871 -0.02472426446533669 -0.01859326203223741 -0.01091029300377135 
0.1509679292280212 -0.01350709818709434 -0.02367658216525147 -0.04089106396171706 -0.05416510259445596 -0.04440430690750213 -0.06027866838462891 
0.01178221762617169 -0.02177447072705386 -0.01320920437850438 -0.01214991365325603 -0.01705351196620935 -0.007835867139344609 -0.01116543252491661 
0.007802210233875419 -0.002335038754645323 -0.001164806399362835 -0.0029068884699655 -0.002103507787657226 -0.03283922130112047 -0.001977095260757393 
0.0348664959971651 -0.02895228624010568 -0.02301173998737543 -0.0196553846369221 -0.05703605101360639 -0.02003822727189135 -0.02371941088801224 
0.006722305947314659 -0.008469771795834399 -0.002690991286583005 -0.009926456991648409 -0.005564250533572662 -0.008635232114777423 -0.004217310165925724 
0.01207749019335882 -0.005442529420790276 -0.0009660596224154389 -0.003238447313579636 -0.002917462134545686 -0.004330191340502044 -0.00375306937265338 
0.1468695869228733 -0.00122192762223889 -0.006075404538657202 -0.005829162752969159 -0.1988748365357383 -0.002782782198464819 -0.07367891928013573 
0.03491218294212627 -7.7736662396607e-05 -0.03026224786900847 -8.672066870644982e-05 -0.01306033783612445 -6.77078100421059e-05 -0.02993592352157343 
0.01468816958257245 -0.007983107105805288 -0.0006404982659510063 -0.005217394320654689 -0.001672712450467305 -0.02477676880785222 -0.003051707975358538 
0.1738205162290002 -0.03184293446302681 -0.009172877312093359 -0.108448622402366 -0.0696369419817551 -0.06369196253598856 -0.02784578170582615 
-0.3354711289595714 -0.1417484279027091 -0.0114461932949285 0.7396806792609142 -0.1064772355997872 -0.2821450156937273 -0.0195000998314926 
0.01637699354546492 -0.0001092559066184377 -6.562593280699995e-05 -0.006103449411046333 -0.002144363528679027 -0.004609834603771154 -0.001128113489096669 
0.008740380234292192 -0.0007112405721246511 -0.0005205265600489935 -0.0006792203594394787 -0.0007361115932400567 -0.05172273852078519 -0.0009716505417631256 
0.02803653498342336 -0.00352624641249663 -0.007157828839527507 -0.02381563400236649 -0.04364260135697973 -0.01300209227029762 -0.01025160909376871 
0.007346771987046785 -0.0002541962998820266 -0.00112390815754326 -0.003971476735681732 -0.005589294805881765 -0.0008356917524619748 -0.0009393367894083798 
0.03994834785848429 -0.0274481495680443 -0.01594465081159396 -0.03343663252465062 -0.03155794258462272 -0.01621656612452705 -0.0130613601056839 
0.05144569536133815 -0.06383797410258939 -0.05754194562214393 -0.06517626564081654 -0.04545412136342868 -0.05229209577606606 -0.0449757251989645 
0.009586504342413002 -0.002608472037297699 -0.00120935361000257 -0.002701120717965099 -0.004076303571520778 -0.008566310510497478 -0.004275763627074724 
0.006862922661288619 -0.001279689976672739 -0.000184409091452551 -0.001658605489812627 -0.001198222780525825 -0.001212800594425238 -0.001346752029129277 
-0.606952972142678 1.358197741599131 -0.5164089445888767 -0.356576193526038 -0.4290661836441672 -0.03103667862210904 -0.3057507000243361 
0.8628555049718704 -0.3153725107587477 0.4782755136699195 -0.2215017546109112 -0.2357362079337248 -0.4157985177342 -0.1568461819635298 
